svm_type c_svc
kernel_type rbf
gamma 0.0166667
nr_class 5
total_sv 1365
rho 0.0676517 0.913967 0.691632 -0.424943 1.05028 0.483642 -0.459673 -0.420776 -1.37738 -1.34079
label 4 1 5 2 3
nr_sv 210 198 373 360 224
SV
0 0 0 1 1:0 2:0 3:0 4:0 5:0 6:0 7:0 8:0 9:0 10:0 11:0 12:0 13:0 14:0 15:0 16:0 17:0 18:0 19:0 20:0 21:0 22:0 23:0 24:0 25:0 26:0 27:0 28:0 29:0 30:0 31:0 32:0 33:0 34:0 35:0 36:0 37:0.0968899 38:0 39:0 40:0 41:1 42:0 43:0.0112143 44:0 45:0 46:0.131569 47:0.801665 48:0.0667654 49:0.00373824 50:0 51:0.149358 52:0 53:0.680595 54:0.170047 55:0.0224258 56:0 57:0 58:0 59:1 60:0 
0 0 1 1 1:0 2:0 3:0 4:0 5:0 6:0 7:0 8:0 9:0 10:0 11:0 12:0 13:0 14:0 15:0 16:0 17:0 18:0 19:0 20:0 21:0 22:0 23:0 24:0 25:0 26:0 27:0 28:0 29:0 30:0 31:0 32:0 33:0 34:0 35:0 36:0 37:0 38:0 39:0 40:0 41:0 42:0 43:0.0373652 44:0 45:0 46:0 47:1 48:0 49:0.00373824 50:0 51:0.171191 52:0 53:0.780083 54:0.048726 55:0.0149519 56:0 57:0 58:0 59:1 60:0 
1 1 1 0 1:0.0522879 2:0 3:0.079046 4:0 5:0.916863 6:0.00409069 7:0.00747638 8:0 9:0 10:0 11:0.780591 12:0.219409 13:0.317709 14:0.863199 15:0.00215178 16:0.00965539 17:0.0882468 18:0.0367475 19:0.140697 20:0.945419 21:0 22:0 23:0.0499055 24:0.00467584 25:0.00416576 26:0.261763 27:0.154648 28:0.23131 29:0.234899 30:0.117379 31:0.0186891 32:0.158721 33:0.031257 34:0 35:0.712159 36:0.0978632 37:0.11537 38:0.174193 39:0.13531 40:0.0598607 41:0.538422 42:0.0922146 43:0.143792 44:0.273854 45:0.328231 46:0.0208615 47:0.305068 48:0.0719867 49:0.0485592 50:0.310922 51:0.0962189 52:0 53:0.518168 54:0.0746909 55:0.0448291 56:0.197632 57:0.237411 58:0.017464 59:0.425639 60:0.121855 
0 0 0 1 1:0 2:0 3:0 4:0 5:0 6:0 7:0 8:0 9:0 10:0 11:0 12:0 13:0 14:0 15:0 16:0 17:0 18:0 19:0 20:0 21:0 22:0 23:0 24:0 25:0 26:0 27:0 28:0 29:0 30:0 31:0 32:0 33:0 34:0 35:0 36:0 37:0.00747638 38:0 39:0 40:0 41:1 42:0 43:0.00416576 44:0.459214 45:0 46:0 47:0.412086 48:0.1287 49:0.00373824 50:0 51:0 52:0 53:1 54:0 55:0.0410977 56:0 57:0.0185285 58:0 59:0.928734 60:0.0527374 
0 0 0 1 1:0 2:0 3:0 4:0 5:0 6:0 7:0 8:0 9:0 10:0 11:0 12:0 13:0 14:0 15:0 16:0 17:0 18:0 19:0 20:0 21:0 22:0 23:0 24:0 25:0 26:0 27:0 28:0 29:0 30:0 31:0.130098 32:0 33:0 34:0.0138479 35:0.984395 36:0.0017568 37:0.00373824 38:0 39:0.17996 40:0 41:0.82004 42:0 43:0.0597409 44:0.111285 45:0.0219155 46:0.0491693 47:0.798916 48:0.0187134 49:0.0448291 50:0.0737184 51:0.0580697 52:0 53:0.793835 54:0.0743774 55:0.0135422 56:0.117108 57:0.138373 58:0.258709 59:0.105089 60:0.380721 
0 1 0 0 1:0.0149519 2:0 3:0.0398313 4:0 5:0.484008 6:0.47616 7:0.00373824 8:0 9:0 10:0 11:1 12:0 13:0.0147235 14:0.126592 15:0 16:0.447458 17:0.340801 18:0.0851491 19:0.0186891 20:0.262558 21:0.116338 22:0.0580032 23:0.294516 24:0.268585 25:0.280151 26:0.0295342 27:0.0794879 28:0.0043497 29:0.680248 30:0.20638 31:0.456951 32:0.184523 33:0.177149 34:0.027176 35:0.455362 36:0.15579 37:0.314227 38:0.128353 39:0.222629 40:0.0436232 41:0.385411 42:0.219984 43:0.0894783 44:0 45:0 46:0 47:1 48:0 49:0.0124967 50:0.465078 51:0.0915882 52:0 53:0.278232 54:0.165101 55:0.0261619 56:0 57:0.114754 58:0 59:0.665519 60:0.219727 
0 1 0.3236150542968855 0 1:0.0857687 2:0 3:0.0693434 4:0 5:0.908452 6:0.0222043 7:0.414947 8:0.795818 9:0.0044355 10:0.0696599 11:0.0875838 12:0.0425032 13:0.0186891 14:0.371464 15:0.0243842 16:0 17:0.555569 18:0.0485832 19:0.0298972 20:0 21:0.0909216 22:0 23:0.736552 24:0.172526 25:0.103812 26:0.0327083 27:0.409021 28:0.130064 29:0.190785 30:0.237422 31:0.462846 32:0.164241 33:0.166966 34:0.0058838 35:0.533775 36:0.129134 37:0.00747638 38:0 39:0 40:0 41:1 42:0 43:0.103812 44:0.0327083 45:0.409021 46:0.130064 47:0.190785 48:0.237422 49:0.15208 50:0.0927165 51:0.169546 52:0.0351129 53:0.487322 54:0.215303 55:0.00373824 56:0 57:0 58:0.386637 59:0.392637 60:0.220726 
1 1 1 0 1:0 2:0 3:0 4:0 5:0 6:0 7:0 8:0 9:0 10:0 11:0 12:0 13:0 14:0 15:0 16:0 17:0 18:0 19:0.262838 20:0.133395 21:0.185962 22:0.00310201 23:0.453621 24:0.22392 25:0.571978 26:0.129501 27:0.113818 28:0.00211917 29:0.748916 30:0.00564576 31:0.0112143 32:0 33:0 34:0 35:0.979604 36:0.0203962 37:0.462034 38:0.452325 39:0.130646 40:0.0133234 41:0.263838 42:0.139868 43:0.0410977 44:0.045284 45:0.182815 46:0 47:0.447003 48:0.324898 49:0.354652 50:0.601413 51:0.135737 52:0.0059713 53:0.121279 54:0.1356 55:0.00373824 56:0 57:0.171191 58:0 59:0.780083 60:0.048726 
0 0 1 0 1:0.0186891 2:0 3:0.112622 4:0 5:0.855323 6:0.0320554 7:0.423812 8:0.0227741 9:0.0590515 10:0.0100623 11:0.824286 12:0.083826 13:0.0851122 14:0.0337693 15:0.691623 16:0 17:0.242429 18:0.0321784 19:0.0968899 20:0 21:0 22:0 23:1 24:0 25:0.0724755 26:0.05814 27:0.506643 28:0 29:0.260867 30:0.17435 31:0.0685417 32:0.125817 33:0.369182 34:0 35:0.090324 36:0.414677 37:0.188374 38:0.108849 39:0.0495702 40:0 41:0.622699 42:0.218882 43:0.300688 44:0.108737 45:0.162133 46:0 47:0.578498 48:0.150633 49:0.0151757 50:0 51:0.66996 52:0 53:0.33004 54:0 55:0.0186891 56:0 57:0.0797811 58:0 59:0.908865 60:0.011354 
1 1 1 1 1:0 2:0 3:0 4:0 5:0 6:0 7:0 8:0 9:0 10:0 11:0 12:0 13:0 14:0 15:0 16:0 17:0 18:0 19:0 20:0 21:0 22:0 23:0 24:0 25:0.0485592 26:0.119272 27:0.0880815 28:0 29:0.695707 30:0.0969394 31:0.00615271 32:0 33:0.580914 34:0 35:0.352948 36:0.066138 37:0.0102737 38:0 39:0.422576 40:0 41:0.154047 42:0.423376 43:0.262838 44:0.133395 45:0.185962 46:0.00310201 47:0.453621 48:0.22392 49:0.310199 50:0.734582 51:0.0159692 52:0.0252905 53:0.171219 54:0.0529392 55:0.0968899 56:0.0768603 57:0.214429 58:0.203755 59:0.29888 60:0.206075 
0 0.488447705465949 1 0 1:0 2:0 3:0 4:0 5:0 6:0 7:0 8:0 9:0 10:0 11:0 12:0 13:0 14:0 15:0 16:0 17:0 18:0 19:0.61733 20:0.38307 21:0.284529 22:0.0948987 23:0.115248 24:0.122254 25:0.00373824 26:0 27:0 28:0 29:1 30:0 31:0.00747638 32:0 33:0 34:0 35:1 36:0 37:0.224162 38:0.0149816 39:0.0339289 40:0 41:0.820088 42:0.131001 43:0.0184445 44:0.360066 45:0.0797717 46:0 47:0.161557 48:0.398605 49:0.068394 50:0.0369333 51:0.607321 52:0.0326365 53:0.265144 54:0.0579654 55:0.00373824 56:0 57:0.305027 58:0 59:0.694973 60:0 
0 0 1 0 1:0 2:0 3:0 4:0 5:0 6:0 7:0 8:0 9:0 10:0 11:0 12:0 13:0.00451201 14:0 15:0.546894 16:0 17:0.453106 18:0 19:0.00373824 20:0 21:0 22:0 23:1 24:0 25:0.0112143 26:0 27:0 28:0 29:0.979604 30:0.0203962 31:0.0894783 32:0.124438 33:0.144584 34:0.0219923 35:0.536004 36:0.172981 37:0.13744 38:0 39:0 40:0.0131323 41:0.986868 42:0 43:0.0166616 44:0.299726 45:0.221345 46:0 47:0.201724 48:0.277205 49:0.177535 50:0.283555 51:0.147978 52:0.0167045 53:0.407128 54:0.144634 55:0.0573629 56:0.28812 57:0.44131 58:0.028289 59:0.0574559 60:0.184825 
0 0 1 0 1:0 2:0 3:0 4:0 5:0 6:0 7:0 8:0 9:0 10:0 11:0 12:0 13:0 14:0 15:0 16:0 17:0 18:0 19:0.00373824 20:0 21:0 22:0 23:1 24:0 25:0.00373824 26:0 27:0 28:0 29:1 30:0 31:0.0894783 32:0 33:0.0836947 34:0.0170705 35:0.8321 36:0.0671345 37:0.0410977 38:0.101823 39:0.190495 40:0.0224942 41:0.502552 42:0.182637 43:0.142185 44:0.097568 45:0.670574 46:0.00862171 47:0.17511 48:0.0481263 49:0.0186891 50:0 51:0.0177793 52:0 53:0.810164 54:0.172057 55:0.0176362 56:0 57:0.671162 58:0 59:0.142249 60:0.186589 
0 0 0 1 1:0 2:0 3:0 4:0 5:0 6:0 7:0 8:0 9:0 10:0 11:0 12:0 13:0 14:0 15:0 16:0 17:0 18:0 19:0 20:0 21:0 22:0 23:0 24:0 25:0 26:0 27:0 28:0 29:0 30:0 31:0 32:0 33:0 34:0 35:0 36:0 37:0 38:0 39:0 40:0 41:0 42:0 43:0.00373824 44:0 45:0 46:0 47:1 48:0 49:0.00373824 50:0 51:0 52:0 53:1 54:0 55:0.00373824 56:0 57:0 58:0 59:1 60:0 
0 0 1 0 1:0.462034 2:0.452325 3:0.130646 4:0.0133234 5:0.263838 6:0.139868 7:0.0783426 8:0.112296 9:0.0516006 10:0.0992316 11:0.7054 12:0.0314722 13:0.194434 14:0.014693 15:0.0665507 16:0.694625 17:0.197777 18:0.0263544 19:0.11537 20:0.0790291 21:0.111537 22:0.0116392 23:0.732825 24:0.0649697 25:0.262838 26:0.133395 27:0.185962 28:0.00310201 29:0.453621 30:0.22392 31:0.317592 32:0 33:0.0121293 34:0.0054426 35:0.972762 36:0.00966655 37:0.0508192 38:0.162988 39:0.663344 40:0 41:0.146261 42:0.0274074 43:0.0857687 44:0.244647 45:0.127858 46:0.0249444 47:0.388416 48:0.214134 49:0.00373824 50:0 51:0 52:0 53:1 54:0 55:0.0516374 56:0.114344 57:0.709311 58:0 59:0.153913 60:0.0224322 
0 0 0 1 1:0 2:0 3:0 4:0 5:0 6:0 7:0 8:0 9:0 10:0 11:0 12:0 13:0 14:0 15:0 16:0 17:0 18:0 19:0 20:0 21:0 22:0 23:0 24:0 25:0.00373824 26:0 27:0 28:0.329921 29:0.670079 30:0 31:0.00373824 32:0 33:0 34:0.316666 35:0.64316 36:0.0401734 37:0.0448291 38:0 39:0 40:0.366377 41:0.558093 42:0.0755298 43:0.0112143 44:0 45:0.234644 46:0 47:0.583212 48:0.182144 49:0.00373824 50:0 51:0.0988769 52:0 53:0.901123 54:0 55:0.0186891 56:0.232269 57:0.24014 58:0 59:0.521081 60:0.0065096 
1 0 0 0 1:0.159375 2:0.0252608 3:0 4:0 5:0.974739 6:0 7:0.0410977 8:0.0805491 9:0.0475878 10:0 11:0.795109 12:0.0767542 13:0.293872 14:0.0132716 15:0 16:0.0175914 17:0.964674 18:0.0044634 19:0.456951 20:0.184523 21:0.177149 22:0.027176 23:0.455362 24:0.15579 25:0.130098 26:0 27:0 28:0.0138723 29:0.986128 30:0 31:0.063465 32:0.166219 33:0.193129 34:0.0440644 35:0.507145 36:0.0894426 37:0.00416576 38:0.27119 39:0.213623 40:0.11982 41:0.243359 42:0.152008 43:0.0709078 44:0.163238 45:0.0723301 46:0 47:0.695807 48:0.0686241 49:0.904335 50:0.372341 51:0.259907 52:0.0192465 53:0.0735269 54:0.274979 55:0.066554 56:0.83827 57:0.0412703 58:0 59:0.0940301 60:0.0264301 
1 1 1 1 1:0 2:0 3:0 4:0 5:0 6:0 7:0 8:0 9:0 10:0 11:0 12:0 13:0 14:0 15:0 16:0 17:0 18:0 19:0 20:0 21:0 22:0 23:0 24:0 25:0 26:0 27:0 28:0 29:0 30:0 31:0 32:0 33:0 34:0 35:0 36:0 37:0.00583746 38:0.263782 39:0.129867 40:0 41:0.236711 42:0.369639 43:0.00373824 44:0 45:0 46:0 47:1 48:0 49:0.314227 50:0.128353 51:0.222629 52:0.0436232 53:0.385411 54:0.219984 55:0.0955209 56:0.664802 57:0.0483835 58:0 59:0.0778142 60:0.209 
0 0 0.5955803682029093 0 1:0 2:0 3:0 4:0 5:0 6:0 7:0 8:0 9:0 10:0 11:0 12:0 13:0 14:0 15:0 16:0 17:0 18:0 19:0.0894783 20:0 21:0 22:0 23:1 24:0 25:0.0857687 26:0 27:0 28:0 29:1 30:0 31:0.314227 32:0.128353 33:0.222629 34:0.0436232 35:0.385411 36:0.219984 37:0.220608 38:0 39:0 40:0 41:1 42:0 43:0.00373824 44:0 45:0 46:0 47:1 48:0 49:0.0229664 50:0 51:0.690908 52:0 53:0.11244 54:0.196652 55:0.0405861 56:0.0461398 57:0.449774 58:0.020386 59:0.124214 60:0.359487 
1 1 1 0 1:0.262838 2:0.133395 3:0.185962 4:0.00310201 5:0.453621 6:0.22392 7:0.10377 8:0.72202 9:0.00284376 10:0.0127604 11:0.207335 12:0.0550403 13:0.0186891 14:0.214915 15:0 16:0.284868 17:0.482147 18:0.0180697 19:0.0112143 20:0.135402 21:0.279981 22:0 23:0.364519 24:0.220098 25:0.535712 26:0.148117 27:0.0901581 28:0.0138818 29:0.644442 30:0.103401 31:0.0499478 32:0.501697 33:0.0082333 34:0 35:0.487727 36:0.00234343 37:0.37989 38:0 39:0.955366 40:0 41:0.0178601 42:0.0267741 43:0.0410977 44:0.0664956 45:0.0982128 46:0 47:0.656385 48:0.178907 49:0.462034 50:0.452325 51:0.130646 52:0.0133234 53:0.263838 54:0.139868 55:0.00373824 56:0 57:0.0888723 58:0 59:0.809945 60:0.101182 
0.6207843863285918 1 0 0 1:0.423812 2:0.0227741 3:0.0590515 4:0.0100623 5:0.824286 6:0.083826 7:0.0373652 8:0.129677 9:0.121302 10:0 11:0.581842 12:0.167179 13:0.0709078 14:0.063018 15:0.0279229 16:0.0556866 17:0.537232 18:0.316141 19:0.0374745 20:0.592543 21:0.246346 22:0.087268 23:0.0590814 24:0.0147615 25:0.0124967 26:0.498735 27:0.081847 28:0 29:0.149184 30:0.270234 31:0.220608 32:0 33:0 34:0 35:0.997922 36:0.00207776 37:0.00373824 38:0 39:0.212696 40:0 41:0.484606 42:0.302697 43:0.0952127 44:0.320033 45:0.23284 46:0.0235668 47:0.015955 48:0.407604 49:0.300688 50:0 51:0.0161782 52:0.0103706 53:0.874119 54:0.099332 55:0.36059 56:0.0376 57:0.0377635 58:0.0099677 59:0.681573 60:0.233096 
0 0.1603322677473629 1 0 1:0.0270656 2:0.203117 3:0.440001 4:0 5:0.24303 6:0.113852 7:0.00747638 8:0 9:0.263708 10:0.253565 11:0.343332 12:0.139395 13:0.130098 14:0 15:0 16:0.0138723 17:0.986128 18:0 19:0.00373824 20:0 21:0.0988769 22:0 23:0.901123 24:0 25:0.00373824 26:0 27:0.15599 28:0 29:0.710813 30:0.133198 31:0.300688 32:0.0189773 33:0.0812847 34:0.00419239 35:0.706735 36:0.188811 37:0.0977215 38:0.0807998 39:0.380296 40:0.0142799 41:0.275529 42:0.249095 43:0.212471 44:0.19596 45:0.29851 46:0.0127325 47:0.222398 48:0.2704 49:0.0184036 50:0 51:0.0840685 52:0.628715 53:0.127694 54:0.159522 55:0.00373824 56:0 57:0.0845927 58:0 59:0.770942 60:0.144465 
0 0 0 1 1:0 2:0 3:0 4:0 5:0 6:0 7:0 8:0 9:0 10:0 11:0 12:0 13:0 14:0 15:0 16:0 17:0 18:0 19:0 20:0 21:0 22:0 23:0 24:0 25:0 26:0 27:0 28:0 29:0 30:0 31:0 32:0 33:0 34:0 35:0 36:0 37:0 38:0 39:0 40:0 41:0 42:0 43:0.0597409 44:0 45:0 46:0 47:1 48:0 49:0.00747638 50:0 51:0 52:0 53:1 54:0 55:0.00373824 56:0 57:0 58:0 59:1 60:0 
0 0 1 0 1:0 2:0 3:0 4:0 5:0 6:0 7:0 8:0 9:0 10:0 11:0 12:0 13:0 14:0 15:0 16:0 17:0 18:0 19:0 20:0 21:0 22:0 23:0 24:0 25:0.417659 26:0 27:0.000916949 28:0.0041145 29:0.994447 30:0.00052198 31:0.533041 32:0.0879259 33:0.0369393 34:0 35:0.836364 36:0.0387704 37:0.00410183 38:0 39:0.467495 40:0 41:0.426055 42:0.10645 43:0.00373824 44:0 45:0.226379 46:0 47:0.687709 48:0.0859121 49:0.245354 50:0.228922 51:0.267445 52:0.0328037 53:0.371992 54:0.0988378 55:0.00416576 56:0.501043 57:0.0493354 58:0 59:0.449622 60:0 
0 1 1 0 1:0.0374745 2:0.33644 3:0.21349 4:0.0330333 5:0.100637 6:0.316399 7:0.0147656 8:0 9:0.657043 10:0 11:0.166334 12:0.176624 13:0.0410977 14:0.118033 15:0.0987883 16:0.0782258 17:0.582557 18:0.122396 19:0.00957326 20:0.232884 21:0.0229311 22:0 23:0.208984 24:0.535201 25:0.13744 26:0 27:0 28:0.0131323 29:0.986868 30:0 31:0.535712 32:0.148117 33:0.0901581 34:0.0138818 35:0.644442 36:0.103401 37:0.423812 38:0.0227741 39:0.0590515 40:0.0100623 41:0.824286 42:0.083826 43:0.269784 44:0.121587 45:0.0766215 46:0 47:0.53827 48:0.263522 49:0.0501606 50:0.279897 51:0.207954 52:0 53:0.205504 54:0.306645 55:0.00747638 56:0 57:0.130014 58:0 59:0.592445 60:0.277542 
1 0 0 0 1:0.177535 2:0.283555 3:0.147978 4:0.0167045 5:0.407128 6:0.144634 7:0.0298972 8:0 9:0 10:0 11:1 12:0 13:0.221233 14:0.81902 15:0.00149343 16:0 17:0.176936 18:0.00255044 19:0.173912 20:0.138242 21:0.00583374 22:0.0174513 23:0.832938 24:0.00553483 25:0.00373824 26:0 27:0 28:0 29:0.888948 30:0.111052 31:0.245354 32:0.228922 33:0.267445 34:0.0328037 35:0.371992 36:0.0988378 37:0.0124967 38:0.572174 39:0 40:0 41:0.342302 42:0.0855242 43:0.122741 44:0.105534 45:0.277601 46:0.0199836 47:0.44646 48:0.150421 49:0.00373824 50:0 51:0 52:0 53:0.94121 54:0.0587903 55:0.00416576 56:0.41374 57:0.122217 58:0 59:0.371279 60:0.0927641 
0 0 0 1 1:0 2:0 3:0 4:0 5:0 6:0 7:0 8:0 9:0 10:0 11:0 12:0 13:0 14:0 15:0 16:0 17:0 18:0 19:0 20:0 21:0 22:0 23:0 24:0 25:0 26:0 27:0 28:0 29:0 30:0 31:0 32:0 33:0 34:0 35:0 36:0 37:0.0448291 38:0.068012 39:0.0937557 40:0.0600996 41:0.732386 42:0.0457467 43:0.00373824 44:0 45:0 46:0.329921 47:0.670079 48:0 49:0.00416576 50:0.527044 51:0 52:0 53:0.472956 54:0 55:0.00373824 56:0 57:0 58:0 59:1 60:0 
0 0 1 0 1:0 2:0 3:0 4:0 5:0 6:0 7:0.00373824 8:0 9:0 10:0 11:1 12:0 13:0.0224258 14:0 15:0 16:0 17:1 18:0 19:0.170285 20:0.0405374 21:0.0977926 22:0 23:0.836676 24:0.0249943 25:0.063465 26:0 27:0 28:0 29:0.985516 30:0.0144842 31:0.0186891 32:0.287519 33:0.134476 34:0.158794 35:0.322515 36:0.0966965 37:0.0485592 38:0.0441525 39:0.391274 40:0 41:0.515076 42:0.0494969 43:0.0746262 44:0.141985 45:0.254448 46:0 47:0.509655 48:0.0939114 49:0.0332128 50:0.165757 51:0.440677 52:0.195298 53:0.099164 54:0.0991046 55:0.0184563 56:0.248231 57:0.54995 58:0 59:0.111378 60:0.0904405 
0 0 1 0 1:0 2:0 3:0 4:0 5:0 6:0 7:0 8:0 9:0 10:0 11:0 12:0 13:0 14:0 15:0 16:0 17:0 18:0 19:0.126421 20:0 21:0 22:0.0876523 23:0.864691 24:0.0476566 25:0.486018 26:0.128429 27:0.153623 28:0.0462358 29:0.606123 30:0.0655885 31:0.00373824 32:0 33:0.220143 34:0.246955 35:0.501573 36:0.0313295 37:0.00416576 38:0.386603 39:0.266469 40:0 41:0.346927 42:0 43:0.0112143 44:0 45:0 46:0 47:1 48:0 49:0.0528646 50:0.202933 51:0.368237 52:0.0256177 53:0.364213 54:0.0389994 55:0.00416576 56:0.444677 57:0.131356 58:0 59:0.399041 60:0.0249251 
0 0 0.9580353063434166 0 1:0 2:0 3:0 4:0 5:0 6:0 7:0 8:0 9:0 10:0 11:0 12:0 13:0.0186891 14:0.184475 15:0.217973 16:0.163014 17:0.413858 18:0.0206805 19:0.0224258 20:0.0647769 21:0.197727 22:0.228963 23:0.348774 24:0.159759 25:0.0186891 26:0.184475 27:0.217973 28:0.163014 29:0.413858 30:0.0206805 31:0.0261619 32:0 33:0.0145391 34:0 35:0.927525 36:0.0579356 37:0.00416576 38:0.272308 39:0.134065 40:0.120314 41:0.244362 42:0.228952 43:0.0857687 44:0.199348 45:0.26957 46:0.164413 47:0.274298 48:0.092371 49:0.417659 50:0 51:0.000916949 52:0.0041145 53:0.994447 54:0.00052198 55:0.533041 56:0.0879259 57:0.0369393 58:0 59:0.836364 60:0.0387704 
0.5715539535144179 1 0.2535325903552903 0 1:0.107987 2:0 3:0.00610551 4:0.0410946 5:0.806824 6:0.145975 7:0.130098 8:0 9:0 10:0.0138479 11:0.984395 12:0.0017568 13:0.61733 14:0.38307 15:0.284529 16:0.0948987 17:0.115248 18:0.122254 19:0.42913 20:0.113236 21:0.136105 22:0.00172521 23:0.318861 24:0.430073 25:0.0130753 26:0 27:0 28:0 29:0.461687 30:0.538313 31:0.0135422 32:0 33:0.0664739 34:0 35:0.201938 36:0.731588 37:0.0224258 38:0 39:0.160748 40:0 41:0.732494 42:0.106758 43:0.00373824 44:0 45:0 46:0 47:0.762014 48:0.237986 49:0.0333139 50:0.631113 51:0.178661 52:0 53:0.141586 54:0.048641 55:0.00933978 56:0 57:0.03041 58:0 59:0.277144 60:0.692446 
1 1 1 1 1:0.0224258 2:0.275883 3:0.237693 4:0.0609467 5:0.371354 6:0.0541234 7:0.61733 8:0.38307 9:0.284529 10:0.0948987 11:0.115248 12:0.122254 13:0.262838 14:0.133395 15:0.185962 16:0.00310201 17:0.453621 18:0.22392 19:0.0291794 20:0.417294 21:0.111527 22:0 23:0.0534955 24:0.417683 25:0.162693 26:0.276863 27:0.0102231 28:0 29:0.0310562 30:0.681857 31:0.166653 32:0.0208069 33:0.0491703 34:0 35:0.84022 36:0.089803 37:0.262838 38:0.133395 39:0.185962 40:0.00310201 41:0.453621 42:0.22392 43:0.0291149 44:0 45:0.664367 46:0 47:0.0852783 48:0.250355 49:0.117144 50:0.352362 51:0.0597534 52:0.0172983 53:0.0175667 54:0.553019 55:0.0149519 56:0 57:0.0484254 58:0 59:0.882658 60:0.0689163 
1 0 1 0 1:0.0931854 2:0.13268 3:0.269454 4:0.00732779 5:0.372075 6:0.218463 7:0.0149519 8:0 9:0.0961704 10:0 11:0.876457 12:0.0273729 13:0.904335 14:0.372341 15:0.259907 16:0.0192465 17:0.0735269 18:0.274979 19:0.0508192 20:0.0435405 21:0.531618 22:0 23:0.312577 24:0.112265 25:0.11537 26:0.058916 27:0.0638131 28:0 29:0.819479 30:0.0577915 31:0.354652 32:0.601413 33:0.135737 34:0.0059713 35:0.121279 36:0.1356 37:0.152925 38:0.450674 39:0.0791569 40:0.0269084 41:0.273259 42:0.170002 43:0.00747638 44:0.345637 45:0.0340333 46:0 47:0.62033 48:0 49:0.417659 50:0 51:0.000916949 52:0.0041145 53:0.994447 54:0.00052198 55:0.533041 56:0.0879259 57:0.0369393 58:0 59:0.836364 60:0.0387704 
0 0 1 0 1:0 2:0 3:0 4:0 5:0 6:0 7:0 8:0 9:0 10:0 11:0 12:0 13:0.103812 14:0.0327083 15:0.409021 16:0.130064 17:0.190785 18:0.237422 19:0.0671873 20:0.0479605 21:0.155841 22:0 23:0.774692 24:0.0215063 25:0.541021 26:0.0253059 27:0.0488384 28:0.0178895 29:0.735766 30:0.1722 31:0.635978 32:0.0205589 33:0.041499 34:0.00454178 35:0.927062 36:0.00633804 37:0.334297 38:0.0219926 39:0.0729056 40:0.226731 41:0.611803 42:0.0665677 43:0.0149519 44:0.132911 45:0.196307 46:0 47:0.477083 48:0.193699 49:0.0149519 50:0 51:0.143268 52:0 53:0.652842 54:0.203891 55:0.00984414 56:0.281262 57:0.332335 58:0 59:0.252397 60:0.134006 
1 1 1 1 1:0 2:0 3:0 4:0 5:0 6:0 7:0 8:0 9:0 10:0 11:0 12:0 13:0 14:0 15:0 16:0 17:0 18:0 19:0 20:0 21:0 22:0 23:0 24:0 25:0 26:0 27:0 28:0 29:0 30:0 31:0.571978 32:0.129501 33:0.113818 34:0.00211917 35:0.748916 36:0.00564576 37:0.548905 38:0 39:0.0059252 40:0.00295415 41:0.989996 42:0.00112432 43:0.245354 44:0.228922 45:0.267445 46:0.0328037 47:0.371992 48:0.0988378 49:0.039767 50:0.078507 51:0.749832 52:0 53:0.07045 54:0.101211 55:0.0149519 56:0.193095 57:0.0380264 58:0 59:0.693114 60:0.0757639 
0 1 0 0 1:0.126421 2:0.0215306 3:0.0996408 4:0.00951287 5:0.656913 6:0.212403 7:0.300688 8:0.108737 9:0.162133 10:0 11:0.578498 12:0.150633 13:0.00416576 14:0.376673 15:0.0741785 16:0 17:0.338016 18:0.211133 19:0.0149519 20:0 21:0 22:0 23:1 24:0 25:0.293872 26:0.0132716 27:0 28:0.0175914 29:0.964674 30:0.0044634 31:0.456951 32:0.184523 33:0.177149 34:0.027176 35:0.455362 36:0.15579 37:0.0374745 38:0.463771 39:0.0405915 40:0.0910704 41:0.323692 42:0.0808746 43:0.229142 44:0.626687 45:0.203854 46:0 47:0.160678 48:0.0087818 49:0.0149519 50:0 51:0.124619 52:0 53:0.757148 54:0.118233 55:0.019845 56:0 57:0 58:0 59:0.273623 60:0.726377 
1 0 0 0 1:0.0298972 2:0 3:0 4:0 5:1 6:0 7:0.00373824 8:0 9:0 10:0 11:1 12:0 13:0.00416576 14:0.484137 15:0 16:0 17:0.434452 18:0.0814109 19:0.0166616 20:0.451731 21:0.15568 22:0 23:0.202686 24:0.189904 25:0.130098 26:0 27:0 28:0.0138723 29:0.986128 30:0 31:0.00416576 32:0.497642 33:0 34:0 35:0.44657 36:0.0557878 37:0.0166616 38:0.415715 39:0.0307002 40:0 41:0.279789 42:0.273796 43:0.0112143 44:0.385881 45:0.018998 46:0 47:0.519418 48:0.0757031 49:0.212471 50:0.19596 51:0.29851 52:0.0127325 53:0.222398 54:0.2704 55:0.00416576 56:0.450441 57:0.0443529 58:0 59:0.404213 60:0.100993 
0.006417566626068118 0 0 0 1:0.00373824 2:0 3:0 4:0 5:1 6:0 7:0.317709 8:0.863199 9:0.00215178 10:0.00965539 11:0.0882468 12:0.0367475 13:0.00373824 14:0 15:0 16:0 17:1 18:0 19:0.0149519 20:0 21:0.332698 22:0 23:0.527317 24:0.139985 25:0.0448291 26:0 27:0 28:0 29:1 30:0 31:0.0522879 32:0 33:0.225219 34:0.0459362 35:0.653085 36:0.0757591 37:0.00373824 38:0 39:0.0988769 40:0 41:0.901123 42:0 43:0.0249895 44:0.66745 45:0.120488 46:0 47:0.0998253 48:0.112236 49:0.0166616 50:0.570267 51:0.0140379 52:0 53:0.255871 54:0.159824 55:0.0984511 56:0.032601 57:0.048151 58:0 59:0.146276 60:0.772972 
0 1 0 0 1:0.00373824 2:0 3:0.17996 4:0 5:0.82004 6:0 7:0.0336317 8:0 9:0 10:0 11:1 12:0 13:0.0410977 14:0.0785057 15:0.0463806 16:0.0693725 17:0.774938 18:0.0308029 19:0.0149519 20:0 21:0.0760373 22:0 23:0.923963 24:0 25:0.00373824 26:0 27:0.127652 28:0 29:0.581682 30:0.290667 31:0.0221464 32:0 33:0.753638 34:0 35:0.127192 36:0.119171 37:0.126421 38:0.149762 39:0.132717 40:0 41:0.652763 42:0.0647575 43:0.0175108 44:0 45:0.0616129 46:0 47:0.280757 48:0.65763 49:0.0149519 50:0 51:0.0398313 52:0 53:0.484008 54:0.47616 55:0.0266129 56:0.16065 57:0.181913 58:0 59:0.144163 60:0.513274 
0 1 0 0 1:0.0092026 2:0 3:0.11568 4:0.324422 5:0.263565 6:0.296333 7:0.0242794 8:0.28942 9:0.0189986 10:0.0426249 11:0.0865725 12:0.562384 13:0.0597409 14:0 15:0.00675877 16:0 17:0.985546 18:0.00769497 19:0.00747638 20:0 21:0 22:0 23:1 24:0 25:0.773114 26:0 27:0.00528323 28:0.00338668 29:0.945788 30:0.0455425 31:0.0112143 32:0 33:0.054435 34:0 35:0.744146 36:0.201419 37:0.122741 38:0.105534 39:0.277601 40:0.0199836 41:0.44646 42:0.150421 43:0.178109 44:0.0412808 45:0.00203237 46:0.00911957 47:0.0555664 48:0.892001 49:0.314227 50:0.128353 51:0.222629 52:0.0436232 53:0.385411 54:0.219984 55:0.00747638 56:0 57:0.0520245 58:0 59:0.47413 60:0.473846 
1 1 1 1 1:0 2:0 3:0 4:0 5:0 6:0 7:0 8:0 9:0 10:0 11:0 12:0 13:0 14:0 15:0 16:0 17:0 18:0 19:0 20:0 21:0 22:0 23:0 24:0 25:0.0186891 26:0 27:0.0209615 28:0 29:0.955173 30:0.023865 31:0.0955209 32:0.359362 33:0.116923 34:0.0138067 35:0.336503 36:0.173405 37:0.334297 38:0.0219926 39:0.0729056 40:0.226731 41:0.611803 42:0.0665677 43:0.0746262 44:0.178694 45:0.138248 46:0.0789523 47:0.458157 48:0.14595 49:0.0485592 50:0 51:0 52:0 53:1 54:0 55:0.103812 56:0.0327083 57:0.409021 58:0.130064 59:0.190785 60:0.237422 
1 1 1 1 1:0 2:0 3:0 4:0 5:0 6:0 7:0 8:0 9:0 10:0 11:0 12:0 13:0 14:0 15:0 16:0 17:0 18:0 19:0.0224258 20:0.394958 21:0.108891 22:0 23:0.425309 24:0.0708424 25:0.219814 26:0.30246 27:0.198546 28:0.0178182 29:0.120631 30:0.360545 31:0.188374 32:0.0889026 33:0.0437692 34:0.015712 35:0.813744 36:0.0378722 37:0.15208 38:0.44583 39:0 40:0.00656605 41:0.546771 42:0.000832992 43:0.0106644 44:0 45:0.526902 46:0 47:0.184691 48:0.288407 49:0.0239229 50:0.201391 51:0 52:0.578376 53:0.180723 54:0.0395095 55:0.0295248 56:0.135556 57:0.480514 58:0 59:0.364934 60:0.0189956 
1 1 1 0 1:0.00373824 2:0 3:0 4:0 5:1 6:0 7:0.269784 8:0.121587 9:0.0766215 10:0 11:0.53827 12:0.263522 13:0.42913 14:0.113236 15:0.136105 16:0.00172521 17:0.318861 18:0.430073 19:0.0112143 20:0 21:0 22:0 23:1 24:0 25:0.486018 26:0.128429 27:0.153623 28:0.0462358 29:0.606123 30:0.0655885 31:0.219814 32:0.30246 33:0.198546 34:0.0178182 35:0.120631 36:0.360545 37:0.0820568 38:0.2101 39:0.292582 40:0 41:0.296275 42:0.201043 43:0.00747638 44:0.213916 45:0.12638 46:0 47:0.383924 48:0.27578 49:0.0261619 50:0.271791 51:0.13381 52:0 53:0.426821 54:0.167579 55:0.0401765 56:0.143215 57:0.460657 58:0 59:0.171357 60:0.224771 
0 1 1 0 1:0.0336317 2:0 3:0 4:0 5:1 6:0 7:0.0410977 8:0.0785057 9:0.0463806 10:0.0693725 11:0.774938 12:0.0308029 13:0.00779337 14:0.250474 15:0.468598 16:0 17:0.224769 18:0.0561585 19:0.106246 20:0 21:0.897735 22:0 23:0.0944029 24:0.00786219 25:0.262838 26:0.133395 27:0.185962 28:0.00310201 29:0.453621 30:0.22392 31:0.00373824 32:0 33:0 34:0 35:1 36:0 37:0.130098 38:0 39:0 40:0.0138723 41:0.986128 42:0 43:0.0580764 44:0.15118 45:0.219568 46:0 47:0.101748 48:0.527504 49:0.00833137 50:0.528812 51:0.130174 52:0 53:0.237271 54:0.103744 55:0.0175108 56:0 57:0.0616129 58:0 59:0.280757 60:0.65763 
0 0 1 0 1:0.0410977 2:0 3:0.0543136 4:0 5:0.777844 6:0.167843 7:0.00747638 8:0 9:0.0441643 10:0 11:0.80499 12:0.150845 13:0.0149519 14:0 15:0.332698 16:0 17:0.527317 18:0.139985 19:0.541021 20:0.0253059 21:0.0488384 22:0.0178895 23:0.735766 24:0.1722 25:0.184766 26:0.0768453 27:0.135253 28:0.00424408 29:0.430993 30:0.352664 31:0.314227 32:0.128353 33:0.222629 34:0.0436232 35:0.385411 36:0.219984 37:0.0522879 38:0 39:0 40:0 41:0.995558 42:0.00444179 43:0.0336317 44:0.162879 45:0.056133 46:0 47:0.657736 48:0.123252 49:0.11168 50:0.0826804 51:0.242607 52:0.146123 53:0.445171 54:0.0834195 55:0.0956897 56:0 57:0.852648 58:0 59:0.132832 60:0.0145198 
0 0 1 0 1:0.0500009 2:0.0849422 3:0.510196 4:0 5:0.266787 6:0.138075 7:0.0857687 8:0 9:0.0693434 10:0 11:0.908452 12:0.0222043 13:0.314227 14:0.128353 15:0.222629 16:0.0436232 17:0.385411 18:0.219984 19:0.350795 20:0 21:0.00110312 22:0.00989975 23:0.985229 24:0.00376775 25:0.462846 26:0.164241 27:0.166966 28:0.0058838 29:0.533775 30:0.129134 31:0.0200964 32:0 33:0.377324 34:0 35:0.350895 36:0.271781 37:0.00373824 38:0 39:0.0936081 40:0 41:0.853105 42:0.0532871 43:0.0485592 44:0.0441525 45:0.391274 46:0 47:0.515076 48:0.0494969 49:0.00373824 50:0 51:0.226379 52:0 53:0.687709 54:0.0859121 55:0.0724755 56:0.05814 57:0.506643 58:0 59:0.260867 60:0.17435 
1 0 1 0 1:0.0224258 2:0.343423 3:0.160623 4:0 5:0.462268 6:0.0336868 7:0.0172261 8:0.259385 9:0.357566 10:0 11:0.310353 12:0.0726955 13:0.0186891 14:0 15:0.15599 16:0 17:0.710813 18:0.133198 19:0.00833137 20:0.570229 21:0 22:0.125972 23:0.255854 24:0.0479439 25:0.00747638 26:0 27:0 28:0 29:1 30:0 31:0.0405861 32:0.128063 33:0.624185 34:0 35:0.172381 36:0.0753713 37:0.11168 38:0.186957 39:0.284723 40:0.049562 41:0.33554 42:0.143218 43:0.321449 44:0.690943 45:0.0034017 46:0 47:0.302266 48:0.00338878 49:0.0186891 50:0.124669 51:0.122756 52:0.165248 53:0.559374 54:0.027952 55:0.00373824 56:0 57:0 58:0 59:1 60:0 
1 0 0 0 1:0 2:0 3:0 4:0 5:0 6:0 7:0 8:0 9:0 10:0 11:0 12:0 13:0 14:0 15:0 16:0 17:0 18:0 19:0 20:0 21:0 22:0 23:0 24:0 25:0.188374 26:0.208011 27:0.189457 28:0.0367622 29:0.475992 30:0.0897779 31:0.456951 32:0.184523 33:0.177149 34:0.027176 35:0.455362 36:0.15579 37:0.00747638 38:0.357814 39:0 40:0 41:0.642186 42:0 43:0.0124967 44:0.465078 45:0.0915882 46:0 47:0.278232 48:0.165101 49:0.0186891 50:0 51:0.144729 52:0 53:0.824375 54:0.0308955 55:0.00747638 56:0 57:0 58:0 59:1 60:0 
1 1 1 1 1:0 2:0 3:0 4:0 5:0 6:0 7:0 8:0 9:0 10:0 11:0 12:0 13:0 14:0 15:0 16:0 17:0 18:0 19:0 20:0 21:0 22:0 23:0 24:0 25:0 26:0 27:0 28:0 29:0 30:0 31:0.00373824 32:0 33:0 34:0 35:1 36:0 37:0.021012 38:0 39:0.10394 40:0 41:0.135323 42:0.760737 43:0.904335 44:0.372341 45:0.259907 46:0.0192465 47:0.0735269 48:0.274979 49:0.100592 50:0 51:0 52:0 53:1 54:0 55:0.0968899 56:0.0768603 57:0.214429 58:0.203755 59:0.29888 60:0.206075 
1 1 1 1 1:0 2:0 3:0 4:0 5:0 6:0 7:0 8:0 9:0 10:0 11:0 12:0 13:0 14:0 15:0 16:0 17:0 18:0 19:0 20:0 21:0 22:0 23:0 24:0 25:0 26:0 27:0 28:0 29:0 30:0 31:0 32:0 33:0 34:0 35:0 36:0 37:0 38:0 39:0 40:0 41:0 42:0 43:0.0968899 44:0 45:0 46:0 47:1 48:0 49:0.423812 50:0.0227741 51:0.0590515 52:0.0100623 53:0.824286 54:0.083826 55:0.0112143 56:0.232745 57:0.114587 58:0 59:0.626577 60:0.0260917 
0 1 0 0 1:0.217049 2:0 3:0.0054798 4:0.00819625 5:0.982165 6:0.00415922 7:0.0224258 8:0.109745 9:0.0540302 10:0.0484885 11:0.590891 12:0.196846 13:0.044145 14:0.0408605 15:0.0080467 16:0.433282 17:0.330004 18:0.187806 19:0.00747638 20:0 21:0 22:0 23:0.780591 24:0.219409 25:0.262838 26:0.133395 27:0.185962 28:0.00310201 29:0.453621 30:0.22392 31:0.00373824 32:0 33:0.149878 34:0.224176 35:0.455308 36:0.170638 37:0.0671873 38:0.0957898 39:0.00471599 40:0.0211614 41:0.773633 42:0.1047 43:0.0112143 44:0.296592 45:0.204429 46:0 47:0.399231 48:0.0997479 49:0.0448291 50:0.197632 51:0.237411 52:0.017464 53:0.425639 54:0.121855 55:0.00490349 56:0.272832 57:0.161187 58:0 59:0.244832 60:0.321149 
1 1 1 1 1:0 2:0 3:0 4:0 5:0 6:0 7:0 8:0 9:0 10:0 11:0 12:0 13:0 14:0 15:0 16:0 17:0 18:0 19:0 20:0 21:0 22:0 23:0 24:0 25:0 26:0 27:0 28:0 29:0 30:0 31:0 32:0 33:0 34:0 35:0 36:0 37:0 38:0 39:0 40:0 41:0 42:0 43:0 44:0 45:0 46:0 47:0 48:0 49:0 50:0 51:0 52:0 53:0 54:0 55:0.00373824 56:0 57:0 58:0 59:1 60:0 
0 1 1 1 1:0 2:0 3:0 4:0 5:0 6:0 7:0 8:0 9:0 10:0 11:0 12:0 13:0 14:0 15:0 16:0 17:0 18:0 19:0 20:0 21:0 22:0 23:0 24:0 25:0 26:0 27:0 28:0 29:0 30:0 31:0.00373824 32:0 33:0 34:0 35:0.888948 36:0.111052 37:0.0261619 38:0 39:0.268032 40:0.300676 41:0.427478 42:0.00381448 43:0.00747638 44:0 45:0 46:0 47:1 48:0 49:0.152925 50:0.450674 51:0.0791569 52:0.0269084 53:0.273259 54:0.170002 55:0.0275462 56:0 57:0.0339368 58:0 59:0.206191 60:0.759872 
1 1 1 1 1:0 2:0 3:0 4:0 5:0 6:0 7:0 8:0 9:0 10:0 11:0 12:0 13:0 14:0 15:0 16:0 17:0 18:0 19:0 20:0 21:0 22:0 23:0 24:0 25:0 26:0 27:0 28:0 29:0 30:0 31:0.053188 32:0.196481 33:0.0435298 34:0 35:0.132238 36:0.627752 37:0.307473 38:0 39:0.0012708 40:0.0114046 41:0.984431 42:0.00289365 43:0.904335 44:0.372341 45:0.259907 46:0.0192465 47:0.0735269 48:0.274979 49:0.462846 50:0.164241 51:0.166966 52:0.0058838 53:0.533775 54:0.129134 55:0.0373652 56:0 57:0.021474 58:0 59:0.978526 60:0 
1 1 1 1 1:0 2:0 3:0 4:0 5:0 6:0 7:0 8:0 9:0 10:0 11:0 12:0 13:0 14:0 15:0 16:0 17:0 18:0 19:0 20:0 21:0 22:0 23:0 24:0 25:0.287026 26:0 27:0 28:0 29:1 30:0 31:0.0485592 32:0 33:0 34:0 35:0.98579 36:0.0142096 37:0.124737 38:0.226946 39:0.142458 40:0 41:0.203655 42:0.426942 43:0.00373824 44:0 45:0.134974 46:0.403769 47:0.410034 48:0.0512235 49:0.133771 50:0.215789 51:0.189712 52:0.0136203 53:0.497939 54:0.0829401 55:0.00416576 56:0.44769 57:0 58:0 59:0.401745 60:0.150564 
1 1 1 1 1:0.376375 2:0.121992 3:0.399708 4:0.00185861 5:0.245368 6:0.231074 7:0.0270656 8:0.203117 9:0.440001 10:0 11:0.24303 12:0.113852 13:0.00747638 14:0 15:0.220143 16:0.246955 17:0.501573 18:0.0313295 19:0.00747638 20:0 21:0.263708 22:0.253565 23:0.343332 24:0.139395 25:0.130098 26:0 27:0 28:0.0138723 29:0.986128 30:0 31:0.004203 32:0 33:0.134167 34:0 35:0.40758 36:0.458253 37:0.0724755 38:0.05814 39:0.506643 40:0 41:0.260867 42:0.17435 43:0.00747638 44:0.183849 45:0.126719 46:0.0812302 47:0.329962 48:0.278239 49:0.904335 50:0.372341 51:0.259907 52:0.0192465 53:0.0735269 54:0.274979 55:0.0426334 56:0 57:0.87959 58:0 59:0.077079 60:0.043331 
1 1 1 1 1:0 2:0 3:0 4:0 5:0 6:0 7:0.571978 8:0.129501 9:0.113818 10:0.00211917 11:0.748916 12:0.00564576 13:0.548905 14:0 15:0.0059252 16:0.00295415 17:0.989996 18:0.00112432 19:0.0224258 20:0.275883 21:0.237693 22:0.0609467 23:0.371354 24:0.0541234 25:0.192015 26:0.0964565 27:0.750313 28:0 29:0.0721312 30:0.081099 31:0.0899442 32:0 33:0.0313015 34:0.764699 35:0.126786 36:0.0772139 37:0.0336317 38:0 39:0.269131 40:0.0345039 41:0.630706 42:0.0656592 43:0.00416576 44:0.527044 45:0 46:0 47:0.472956 48:0 49:0.0434523 50:0.368118 51:0.384217 52:0 53:0.0991017 54:0.148563 55:0.00416576 56:0.511921 57:0 58:0 59:0.459384 60:0.0286943 
0 1 1 1 1:0 2:0 3:0 4:0 5:0 6:0 7:0 8:0 9:0 10:0 11:0 12:0 13:0 14:0 15:0 16:0 17:0 18:0 19:0 20:0 21:0 22:0 23:0 24:0 25:0 26:0 27:0 28:0 29:0 30:0 31:0 32:0 33:0 34:0 35:0 36:0 37:0 38:0 39:0 40:0 41:0 42:0 43:0.00373824 44:0 45:0 46:0.263698 47:0.53558 48:0.200722 49:0.00747638 50:0 51:0.127637 52:0 53:0.775486 54:0.0968776 55:0.00373824 56:0 57:0 58:0 59:1 60:0 
0 0.5825961446590174 0.4275748327934712 0 1:0 2:0 3:0 4:0 5:0 6:0 7:0 8:0 9:0 10:0 11:0 12:0 13:0 14:0 15:0 16:0 17:0 18:0 19:0 20:0 21:0 22:0 23:0 24:0 25:0.206337 26:0.0191134 27:0.00752803 28:0 29:0.960502 30:0.0128562 31:0.212471 32:0.19596 33:0.29851 34:0.0127325 35:0.222398 36:0.2704 37:0.0124967 38:0.466133 39:0.045898 40:0 41:0.418295 42:0.0696741 43:0.0560152 44:0 45:0.037567 46:0.0280949 47:0.855925 48:0.0784128 49:0.212471 50:0.19596 51:0.29851 52:0.0127325 53:0.222398 54:0.2704 55:0.00747638 56:0 57:0 58:0 59:1 60:0 
0 0 0.2742121553750057 0 1:0.280151 2:0.0295342 3:0.0794879 4:0.0043497 5:0.680248 6:0.20638 7:0.124737 8:0.226946 9:0.142458 10:0 11:0.203655 12:0.426942 13:0.220608 14:0 15:0 16:0 17:1 18:0 19:0.166653 20:0.130885 21:0.300712 22:0.0289145 23:0.440447 24:0.0990413 25:0.42913 26:0.113236 27:0.136105 28:0.00172521 29:0.318861 30:0.430073 31:0.192015 32:0.0964565 33:0.750313 34:0 35:0.0721312 36:0.081099 37:0.159375 38:0 39:0 40:0 41:0.995661 42:0.00433894 43:0.0112143 44:0 45:0.0345901 46:0 47:0.945719 48:0.0196907 49:0.0831234 50:0.460149 51:0.172173 52:0 53:0.227109 54:0.140568 55:0.334297 56:0.0219926 57:0.0729056 58:0.226731 59:0.611803 60:0.0665677 
1 1 0.1790987659811325 0 1:0.0913915 2:0.690522 3:0.179253 4:0 5:0.0563324 6:0.0738919 7:0.451015 8:0.0429207 9:0.0549407 10:0.00812729 11:0.715295 12:0.178717 13:0.0894783 14:0 15:0.0593167 16:0.0532327 17:0.86494 18:0.022511 19:0.00747638 20:0 21:0 22:0 23:0.7443 24:0.2557 25:0.00747638 26:0 27:0.0453033 28:0 29:0.825751 30:0.128946 31:0.177535 32:0.283555 33:0.147978 34:0.0167045 35:0.407128 36:0.144634 37:0.00747638 38:0 39:0.0696885 40:0.156352 41:0.635112 42:0.138847 43:0.00747638 44:0.239096 45:0.0235427 46:0 47:0.429117 48:0.308243 49:0.904335 50:0.372341 51:0.259907 52:0.0192465 53:0.0735269 54:0.274979 55:0.066554 56:0.83827 57:0.0412703 58:0 59:0.0940301 60:0.0264301 
0 0 1 0 1:0.00373824 2:0 3:0 4:0 5:0.94121 6:0.0587903 7:0.00373824 8:0 9:0 10:0 11:1 12:0 13:0.00373824 14:0 15:0 16:0 17:1 18:0 19:0.0186891 20:0.269794 21:0.079696 22:0 23:0.403509 24:0.247001 25:0.0769624 26:0 27:0.909107 28:0 29:0.0881406 30:0.00275274 31:0.0459085 32:0 33:0.879291 34:0 35:0.071549 36:0.0491605 37:0.0457916 38:0.402966 39:0.227248 40:0 41:0.295864 42:0.0739216 43:0.00902384 44:0.165963 45:0.359516 46:0 47:0.148931 48:0.325591 49:0.15208 50:0.0661458 51:0.0651307 52:0.038967 53:0.811218 54:0.0185381 55:0.0149519 56:0 57:0 58:0 59:1 60:0 
0 1 1 1 1:0 2:0 3:0 4:0 5:0 6:0 7:0 8:0 9:0 10:0 11:0 12:0 13:0 14:0 15:0 16:0 17:0 18:0 19:0 20:0 21:0 22:0 23:0 24:0 25:0 26:0 27:0 28:0 29:0 30:0 31:0 32:0 33:0 34:0 35:0 36:0 37:0.0224258 38:0 39:0 40:0 41:1 42:0 43:0.011043 44:0 45:0 46:0.672715 47:0.227718 48:0.0995668 49:0.00373824 50:0 51:0.180548 52:0.202537 53:0.411359 54:0.205556 55:0.0560152 56:0 57:0 58:0 59:1 60:0 
0 1 0 0 1:0.107889 2:0.69559 3:0.0105372 4:0.0118205 5:0.21607 6:0.065982 7:0.188374 8:0.108849 9:0.0495702 10:0 11:0.622699 12:0.218882 13:0.300688 14:0.108737 15:0.162133 16:0 17:0.578498 18:0.150633 19:0.00980674 20:0 21:0.0231825 22:0 23:0.422551 24:0.554266 25:0.00373824 26:0 27:0 28:0 29:0.888948 30:0.111052 31:0.0410977 32:0.0664956 33:0.0982128 34:0 35:0.656385 36:0.178907 37:0.0857687 38:0.244647 39:0.127858 40:0.0249444 41:0.388416 42:0.214134 43:0.245354 44:0.228922 45:0.267445 46:0.0328037 47:0.371992 48:0.0988378 49:0.00373824 50:0 51:0 52:0 53:1 54:0 55:0.177535 56:0.283555 57:0.147978 58:0.0167045 59:0.407128 60:0.144634 
0 0 0 1 1:0 2:0 3:0 4:0 5:0 6:0 7:0 8:0 9:0 10:0 11:0 12:0 13:0 14:0 15:0 16:0 17:0 18:0 19:0 20:0 21:0 22:0 23:0 24:0 25:0 26:0 27:0 28:0 29:0 30:0 31:0.0112143 32:0 33:0 34:0 35:1 36:0 37:0.0814461 38:0 39:0.678227 40:0.0305861 41:0.279546 42:0.0116408 43:0.00373824 44:0 45:0.0988769 46:0 47:0.901123 48:0 49:0.00373824 50:0 51:0 52:0.304436 53:0.61832 54:0.0772437 55:0.00373824 56:0 57:0 58:0 59:0.762014 60:0.237986 
0 0.7355059639732945 0 0 1:0.0249895 2:0.788186 3:0.0129349 4:0 5:0.117883 6:0.0809959 7:0.11537 8:0.178063 9:0.116156 10:0.049171 11:0.619182 12:0.0374281 13:0.00373824 14:0 15:0.0888723 16:0 17:0.809945 18:0.101182 19:0.0560152 20:0.0782803 21:0.204259 22:0.0172933 23:0.52685 24:0.173317 25:0.376375 26:0.121992 27:0.399708 28:0.00185861 29:0.245368 30:0.231074 31:0.0149519 32:0.189004 33:0.0372207 34:0 35:0.678428 36:0.0953468 37:0.00373824 38:0 39:0.0845927 40:0 41:0.770942 42:0.144465 43:0.0112143 44:0 45:0.247712 46:0 47:0.376257 48:0.376031 49:0.0298972 50:0 51:0 52:0 53:1 54:0 55:0.00416576 56:0.406852 57:0 58:0 59:0.365098 60:0.22805 
1 1 1 1 1:0 2:0 3:0 4:0 5:0 6:0 7:0 8:0 9:0 10:0 11:0 12:0 13:0 14:0 15:0 16:0 17:0 18:0 19:0 20:0 21:0 22:0 23:0 24:0 25:0.0186891 26:0.184475 27:0.217973 28:0.163014 29:0.413858 30:0.0206805 31:0.191978 32:0.339598 33:0.120198 34:0.0851605 35:0.428291 36:0.0267522 37:0.0149519 38:0.193222 39:0.275873 40:0 41:0.346785 42:0.184119 43:0.0709078 44:0 45:0.0809319 46:0 47:0.875876 48:0.0431917 49:0.456951 50:0.184523 51:0.177149 52:0.027176 53:0.455362 54:0.15579 55:0.0485592 56:0.15032 57:0.113477 58:0 59:0.584538 60:0.151664 
0 1 1 1 1:0 2:0 3:0 4:0 5:0 6:0 7:0 8:0 9:0 10:0 11:0 12:0 13:0 14:0 15:0 16:0 17:0 18:0 19:0 20:0 21:0 22:0 23:0 24:0 25:0 26:0 27:0 28:0 29:0 30:0 31:0 32:0 33:0 34:0 35:0 36:0 37:0.0448291 38:0 39:0.0318084 40:0.0713648 41:0.869666 42:0.0271608 43:0.00747638 44:0.204952 45:0.121084 46:0.271663 47:0.367837 48:0.0344641 49:0.0904035 50:0.0255874 51:0.556804 52:0 53:0.413306 54:0.00430269 55:0.0485592 56:0 57:0.00836984 58:0 59:0.99163 60:0 
0 0 1 0 1:0.00373824 2:0 3:0 4:0 5:1 6:0 7:0.0508192 8:0.0435405 9:0.531618 10:0 11:0.312577 12:0.112265 13:0.0261619 14:0.242158 15:0.214598 16:0 17:0.507048 18:0.036196 19:0.220608 20:0 21:0 22:0 23:0.997922 24:0.00207776 25:0.0857687 26:0.244647 27:0.127858 28:0.0249444 29:0.388416 30:0.214134 31:0.220608 32:0 33:0 34:0 35:1 36:0 37:0.0200964 38:0 39:0.527768 40:0 41:0.196321 42:0.275911 43:0.0405861 44:0.128063 45:0.624185 46:0 47:0.172381 48:0.0753713 49:0.0112143 50:0 51:0.0717675 52:0.322033 53:0.32703 54:0.27917 55:0.191978 56:0.339598 57:0.120198 58:0.0851605 59:0.428291 60:0.0267522 
0 1 0 0 1:0.451015 2:0.0429207 3:0.0549407 4:0.00812729 5:0.715295 6:0.178717 7:0.00984414 8:0.281262 9:0.332335 10:0 11:0.252397 12:0.134006 13:0.0147235 14:0 15:0.0242999 16:0.436151 17:0.11073 18:0.42882 19:0.00747638 20:0 21:0.0771613 22:0 23:0.703216 24:0.219623 25:0.170285 26:0.0405374 27:0.0977926 28:0 29:0.836676 30:0.0249943 31:0.541021 32:0.0253059 33:0.0488384 34:0.0178895 35:0.735766 36:0.1722 37:0.124737 38:0.226946 39:0.142458 40:0 41:0.203655 42:0.426942 43:0.0894783 44:0.0672831 45:0.198752 46:0 47:0.724537 48:0.00942842 49:0.541021 50:0.0253059 51:0.0488384 52:0.0178895 53:0.735766 54:0.1722 55:0.00552166 56:0 57:0.115792 58:0.389684 59:0.26382 60:0.230704 
0 0 0 1 1:0 2:0 3:0 4:0 5:0 6:0 7:0 8:0 9:0 10:0 11:0 12:0 13:0 14:0 15:0 16:0 17:0 18:0 19:0 20:0 21:0 22:0 23:0 24:0 25:0 26:0 27:0 28:0 29:0 30:0 31:0 32:0 33:0 34:0 35:0 36:0 37:0.0373652 38:0 39:0 40:0 41:1 42:0 43:0.0783426 44:0 45:0.00515217 46:0 47:0.986049 48:0.00879873 49:0.00373824 50:0 51:0 52:0 53:0.94121 54:0.0587903 55:0.00416576 56:0.355955 57:0.105148 58:0 59:0.319424 60:0.219473 
0 0 1 0 1:0.262838 2:0.0189811 3:0.0784974 4:0.00419323 5:0.613194 6:0.285134 7:0.122741 8:0.095473 9:0.0305526 10:0.0949116 11:0.706818 12:0.0722449 13:0.0336317 14:0 15:0.0117234 16:0 17:0.961582 18:0.0266946 19:0.11537 20:0 21:0.00702936 22:0 23:0.992971 24:0 25:0.162618 26:0 27:0.926295 28:0.0103911 29:0.063314 30:0 31:0.0977215 32:0.0807998 33:0.380296 34:0.0142799 35:0.275529 36:0.249095 37:0.237021 38:0.786021 39:0.0934088 40:0.0179632 41:0.0972902 42:0.00531737 43:0.0224258 44:0 45:0.0527988 46:0 47:0.72178 48:0.225421 49:0.206337 50:0.0598299 51:0.143745 52:0.00528694 53:0.601325 54:0.189814 55:0.451015 56:0.0429207 57:0.0549407 58:0.00812729 59:0.715295 60:0.178717 
1 1 1 1 1:0 2:0 3:0 4:0 5:0 6:0 7:0 8:0 9:0 10:0 11:0 12:0 13:0 14:0 15:0 16:0 17:0 18:0 19:0 20:0 21:0 22:0 23:0 24:0 25:0.107987 26:0 27:0 28:0 29:1 30:0 31:0.188374 32:0.108849 33:0.0495702 34:0 35:0.622699 36:0.218882 37:0.122741 38:0.105534 39:0.277601 40:0.0199836 41:0.44646 42:0.150421 43:0.0208259 44:0.839853 45:0 46:0 47:0.150732 48:0.00941512 49:0.00373824 50:0 51:0.171191 52:0 53:0.780083 54:0.048726 55:0.0968899 56:0.0768603 57:0.214429 58:0.203755 59:0.29888 60:0.206075 
0 1 1 1 1:0 2:0 3:0 4:0 5:0 6:0 7:0 8:0 9:0 10:0 11:0 12:0 13:0 14:0 15:0 16:0 17:0 18:0 19:0 20:0 21:0 22:0 23:0 24:0 25:0 26:0 27:0 28:0 29:0 30:0 31:0.0112143 32:0.267234 33:0.11841 34:0 35:0.359713 36:0.254644 37:0.0112143 38:0 39:0 40:0.247124 41:0.752876 42:0 43:0.904335 44:0.372341 45:0.259907 46:0.0192465 47:0.0735269 48:0.274979 49:0.241838 50:0 51:0 52:0 53:0.997169 54:0.00283117 55:0.234786 56:0 57:0 58:0.0076344 59:0.992366 60:0 
0 1 1 1 1:0 2:0 3:0 4:0 5:0 6:0 7:0 8:0 9:0 10:0 11:0 12:0 13:0 14:0 15:0 16:0 17:0 18:0 19:0 20:0 21:0 22:0 23:0 24:0 25:0 26:0 27:0 28:0 29:0 30:0 31:0.00416576 32:0.439348 33:0.0432606 34:0 35:0.394259 36:0.123132 37:0.0814461 38:0 39:0.678227 40:0.0305861 41:0.279546 42:0.0116408 43:0.0298972 44:0 45:0 46:0 47:1 48:0 49:0.00373824 50:0 51:0.0936081 52:0 53:0.853105 54:0.0532871 55:0.00747638 56:0 57:0.389656 58:0 59:0.59186 60:0.0184845 
1 1 1 1 1:0 2:0 3:0 4:0 5:0 6:0 7:0 8:0 9:0 10:0 11:0 12:0 13:0 14:0 15:0 16:0 17:0 18:0 19:0 20:0 21:0 22:0 23:0 24:0 25:0 26:0 27:0 28:0 29:0 30:0 31:0 32:0 33:0 34:0 35:0 36:0 37:0 38:0 39:0 40:0 41:0 42:0 43:0.00373824 44:0 45:0 46:0 47:1 48:0 49:0.904335 50:0.372341 51:0.259907 52:0.0192465 53:0.0735269 54:0.274979 55:0.104291 56:0.0373908 57:0.0147268 58:0 59:0.939499 60:0.00838336 
1 0 1 1 1:0 2:0 3:0 4:0 5:0 6:0 7:0 8:0 9:0 10:0 11:0 12:0 13:0 14:0 15:0 16:0 17:0 18:0 19:0 20:0 21:0 22:0 23:0 24:0 25:0.0112143 26:0 27:0 28:0 29:1 30:0 31:0.456951 32:0.184523 33:0.177149 34:0.027176 35:0.455362 36:0.15579 37:0.104291 38:0.0822905 39:0.132345 40:0.048478 41:0.689223 42:0.0476632 43:0.0186891 44:0.429461 45:0.0105718 46:0 47:0.481733 48:0.0782347 49:0.0224258 50:0.345041 51:0.122308 52:0.0914697 53:0.371556 54:0.069625 55:0.0149519 56:0.146869 57:0.202461 58:0 59:0.527185 60:0.123485 
1 1 1 0 1:0.0225564 2:0 3:0.434371 4:0.0708761 5:0.359879 6:0.134874 7:0.063465 8:0.0858351 9:0.15495 10:0.189623 11:0.436481 12:0.133111 13:0.462034 14:0.452325 15:0.130646 16:0.0133234 17:0.263838 18:0.139868 19:0.00373824 20:0 21:0 22:0 23:1 24:0 25:0.334297 26:0.0219926 27:0.0729056 28:0.226731 29:0.611803 30:0.0665677 31:0.0783426 32:0.112296 33:0.0516006 34:0.0992316 35:0.7054 36:0.0314722 37:0.0186891 38:0 39:0.201706 40:0 41:0.459567 42:0.338727 43:0.0448291 44:0.197632 45:0.237411 46:0.017464 47:0.425639 48:0.121855 49:0.462034 50:0.452325 51:0.130646 52:0.0133234 53:0.263838 54:0.139868 55:0.0955209 56:0.531517 57:0.106948 58:0 59:0.228116 60:0.13342 
0 0 0 1 1:0 2:0 3:0 4:0 5:0 6:0 7:0 8:0 9:0 10:0 11:0 12:0 13:0.00747638 14:0 15:0.165465 16:0 17:0.430852 18:0.403682 19:0.220608 20:0 21:0 22:0 23:0.997922 24:0.00207776 25:0.00747638 26:0 27:0 28:0 29:1 30:0 31:0.00373824 32:0 33:0.369201 34:0 35:0.480678 36:0.150122 37:0.104291 38:0.0373908 39:0.0147268 40:0 41:0.939499 42:0.00838336 43:0.0894783 44:0.313888 45:0.080834 46:0 47:0.520014 48:0.0852637 49:0.0220833 50:0 51:0 52:0.747102 53:0.252898 54:0 55:0.099647 56:0.536978 57:0.215901 58:0 59:0.100389 60:0.146732 
0 0 1 1 1:0 2:0 3:0 4:0 5:0 6:0 7:0 8:0 9:0 10:0 11:0 12:0 13:0 14:0 15:0 16:0 17:0 18:0 19:0 20:0 21:0 22:0 23:0 24:0 25:0 26:0 27:0 28:0 29:0 30:0 31:0 32:0 33:0 34:0 35:0 36:0 37:0.0448291 38:0 39:0.0318084 40:0.0713648 41:0.869666 42:0.0271608 43:0.0186891 44:0.146628 45:0.072189 46:0 47:0.657901 48:0.123282 49:0.0904035 50:0.0255874 51:0.556804 52:0 53:0.413306 54:0.00430269 55:0.0485592 56:0 57:0.00836984 58:0 59:0.99163 60:0 
1 1 1 1 1:0 2:0 3:0 4:0 5:0 6:0 7:0.00373824 8:0 9:0.23394 10:0 11:0.533008 12:0.233051 13:0.486018 14:0.128429 15:0.153623 16:0.0462358 17:0.606123 18:0.0655885 19:0.00373824 20:0 21:0.340534 22:0 23:0.620696 24:0.0387703 25:0.11537 26:0.174193 27:0.13531 28:0.0598607 29:0.538422 30:0.0922146 31:0.245354 32:0.228922 33:0.267445 34:0.0328037 35:0.371992 36:0.0988378 37:0.0582549 38:0.402975 39:0.158717 40:0.0381529 41:0.0516599 42:0.348495 43:0.0298972 44:0 45:0 46:0 47:0.984624 48:0.0153755 49:0.904335 50:0.372341 51:0.259907 52:0.0192465 53:0.0735269 54:0.274979 55:0.0133088 56:0.103892 57:0.102298 58:0.275417 59:0.18646 60:0.331933 
0.1488947985570559 0 0 0 1:0.0298972 2:0.203044 3:0.246579 4:0 5:0.485884 6:0.0644928 7:0.130098 8:0.0898034 9:0.0950572 10:0.0495974 11:0.705138 12:0.0604042 13:0.0249895 14:0.543665 15:0.0802984 16:0 17:0.325247 18:0.0507894 19:0.334297 20:0.0219926 21:0.0729056 22:0.226731 23:0.611803 24:0.0665677 25:0.219814 26:0.30246 27:0.198546 28:0.0178182 29:0.120631 30:0.360545 31:0.184766 32:0 33:0 34:0 35:1 36:0 37:0.220608 38:0 39:0 40:0 41:0.997922 42:0.00207776 43:0.0166616 44:0.509068 45:0.112783 46:0 47:0.114206 48:0.263943 49:0.141106 50:0.114525 51:0.144718 52:0 53:0.650886 54:0.0898711 55:0.11168 56:0.0826804 57:0.242607 58:0.146123 59:0.445171 60:0.0834195 
1 0 0 0 1:0.00373824 2:0 3:0 4:0 5:1 6:0 7:0.0155858 8:0.0921359 9:0.344744 10:0 11:0.330721 12:0.232399 13:0.0931854 14:0.13268 15:0.269454 16:0.00732779 17:0.372075 18:0.218463 19:0.310199 20:0.734582 21:0.0159692 22:0.0252905 23:0.171219 24:0.0529392 25:0.0261619 26:0.125266 27:0.0246687 28:0 29:0.786872 30:0.0631929 31:0.0671873 32:0.27213 33:0.00669885 34:0.120235 35:0.549455 36:0.0514805 37:0.0438701 38:0.0405727 39:0.167791 40:0 41:0.364089 42:0.427548 43:0.0373652 44:0 45:0 46:0 47:1 48:0 49:0.0208259 50:0.443065 51:0.104704 52:0 53:0.397595 54:0.0546365 55:0.00747638 56:0.345637 57:0.0340333 58:0 59:0.62033 60:0 
0 0 0 1 1:0 2:0 3:0 4:0 5:0 6:0 7:0 8:0 9:0 10:0 11:0 12:0 13:0 14:0 15:0 16:0 17:0 18:0 19:0 20:0 21:0 22:0 23:0 24:0 25:0 26:0 27:0 28:0 29:0 30:0 31:0 32:0 33:0 34:0 35:0 36:0 37:0.0261619 38:0 39:0 40:0 41:1 42:0 43:0.00747638 44:0 45:0 46:0 47:1 48:0 49:0.00747638 50:0 51:0.264315 52:0.215641 53:0.437974 54:0.0820708 55:0.0485592 56:0 57:0.00806687 58:0.0361974 59:0.955736 60:0 
1 1 1 1 1:0.0165636 2:0.11868 3:0.0233717 4:0.471927 5:0.3195 6:0.0665225 7:0.00416576 8:0.41374 9:0.122217 10:0 11:0.371279 12:0.0927641 13:0.0374745 14:0.578737 15:0.0823125 16:0 17:0.230819 18:0.108132 19:0.0112143 20:0 21:0.146849 22:0 23:0.802994 24:0.050157 25:0.191978 26:0.339598 27:0.120198 28:0.0851605 29:0.428291 30:0.0267522 31:0.414947 32:0.795818 33:0.0044355 34:0.0696599 35:0.0875838 36:0.0425032 37:0.0225564 38:0.130731 39:0.707988 40:0 41:0.117315 42:0.0439666 43:0.191978 44:0.339598 45:0.120198 46:0.0851605 47:0.428291 48:0.0267522 49:0.310199 50:0.734582 51:0.0159692 52:0.0252905 53:0.171219 54:0.0529392 55:0.00373824 56:0 57:0 58:0 59:0.551872 60:0.448128 
0 0.8385449342181847 1 0 1:0.103812 2:0.0327083 3:0.409021 4:0.130064 5:0.190785 6:0.237422 7:0.462846 8:0.164241 9:0.166966 10:0.0058838 11:0.533775 12:0.129134 13:0.00747638 14:0 15:0 16:0 17:1 18:0 19:0.103812 20:0.0327083 21:0.409021 22:0.130064 23:0.190785 24:0.237422 25:0.15208 26:0.0927165 27:0.169546 28:0.0351129 29:0.487322 30:0.215303 31:0.0707001 32:0.462213 33:0.101733 34:0 35:0.317183 36:0.118872 37:0.0624055 38:0.328532 39:0.140179 40:0.193541 41:0.235852 42:0.101896 43:0.486018 44:0.128429 45:0.153623 46:0.0462358 47:0.606123 48:0.0655885 49:0.063465 50:0.331906 51:0.160435 52:0 53:0.460303 54:0.0473558 55:0.00373824 56:0 57:0 58:0 59:1 60:0 
0 0 1 0 1:0 2:0 3:0 4:0 5:0 6:0 7:0.0186891 8:0 9:0.0200066 10:0 11:0.91166 12:0.0683335 13:0.170285 14:0.0405374 15:0.0977926 16:0 17:0.836676 18:0.0249943 19:0.182119 20:0 21:0.97889 22:0 23:0.019869 24:0.00124107 25:0.0377192 26:0.312377 27:0.353721 28:0.0690089 29:0.10512 30:0.159773 31:0.00451201 32:0 33:0.546894 34:0 35:0.453106 36:0 37:0.00373824 38:0 39:0 40:0 41:1 42:0 43:0.00373824 44:0 45:0 46:0 47:0.800096 48:0.199904 49:0.462846 50:0.164241 51:0.166966 52:0.0058838 53:0.533775 54:0.129134 55:0.00793888 56:0.150295 57:0.162787 58:0.265619 59:0.13487 60:0.286428 
1 1 0 0 1:0 2:0 3:0 4:0 5:0 6:0 7:0 8:0 9:0 10:0 11:0 12:0 13:0.0166616 14:0.464309 15:0.125726 16:0 17:0.104165 18:0.3058 19:0.0894783 20:0.0410979 21:0.0161869 22:0 23:0.885124 24:0.0575907 25:0.0224258 26:0 27:0 28:0.0723562 29:0.881747 30:0.0458968 31:0.00416576 32:0.453225 33:0.0892541 34:0 35:0.406712 36:0.0508085 37:0.0186891 38:0 39:0 40:0.0636041 41:0.64591 42:0.290485 43:0.317709 44:0.863199 45:0.00215178 46:0.00965539 47:0.0882468 48:0.0367475 49:0.0124967 50:0.511838 51:0.0671978 52:0 53:0.306206 54:0.114758 55:0.00373824 56:0 57:0.15599 58:0 59:0.710813 60:0.133198 
0 0 0.3938748026742186 0 1:0 2:0 3:0 4:0 5:0 6:0 7:0 8:0 9:0 10:0 11:0 12:0 13:0 14:0 15:0 16:0 17:0 18:0 19:0 20:0 21:0 22:0 23:0 24:0 25:0 26:0 27:0 28:0 29:0 30:0 31:0.0261619 32:0 33:0.256425 34:0 35:0.743575 36:0 37:0.0416337 38:0.482097 39:0.261084 40:0 41:0.173048 42:0.0837701 43:0.0448291 44:0 45:0 46:0 47:1 48:0 49:0.063465 50:0.335478 51:0.141141 52:0 53:0.465258 54:0.0581224 55:0.00747638 56:0 57:0 58:0 59:1 60:0 
0 1 0 0 1:0.00747638 2:0 3:0.149732 4:0.167968 5:0.682299 6:0 7:0.0112143 8:0.266797 9:0 10:0 11:0.718249 12:0.0149545 13:0.0186891 14:0 15:0.0362654 16:0 17:0.550847 18:0.412888 19:0.177431 20:0.0776238 21:0.00955407 22:0.060019 23:0.0174144 24:0.835389 25:0.00943399 26:0.180387 27:0.408524 28:0.239102 29:0.161875 30:0.0101111 31:0.42913 32:0.113236 33:0.136105 34:0.00172521 35:0.318861 36:0.430073 37:0.0336317 38:0 39:0 40:0.313864 41:0.637469 42:0.0486664 43:0.314227 44:0.128353 45:0.222629 46:0.0436232 47:0.385411 48:0.219984 49:0.220608 50:0 51:0 52:0 53:1 54:0 55:0.0186891 56:0 57:0 58:0 59:1 60:0 
1 1 0.5137002744090327 0 1:0.0298972 2:0.140563 3:0.0276811 4:0.24842 5:0.504548 6:0.0787884 7:0.00373824 8:0 9:0 10:0 11:0.94121 12:0.0587903 13:0.206337 14:0.13113 15:0.27287 16:0.00772499 17:0.439312 18:0.148963 19:0.0624055 20:0.328532 21:0.140179 22:0.193541 23:0.235852 24:0.101896 25:0.0186891 26:0 27:0.146738 28:0.219479 29:0.557212 30:0.0765707 31:0.0249895 32:0.457962 33:0.165343 34:0 35:0.342469 36:0.0342264 37:0.334297 38:0.0219926 39:0.0729056 40:0.226731 41:0.611803 42:0.0665677 43:0.0624055 44:0.328532 45:0.140179 46:0.193541 47:0.235852 48:0.101896 49:0.00373824 50:0 51:0 52:0 53:1 54:0 55:0.0151757 56:0.107636 57:0.392141 58:0.0475569 59:0.289769 60:0.162897 
1 1 1 1 1:0 2:0 3:0 4:0 5:0 6:0 7:0 8:0 9:0 10:0 11:0 12:0 13:0 14:0 15:0 16:0 17:0 18:0 19:0 20:0 21:0 22:0 23:0 24:0 25:0 26:0 27:0 28:0 29:0 30:0 31:0.0820568 32:0.0405471 33:0.115782 34:0 35:0.800489 36:0.0431823 37:0.0246062 38:0 39:0.618406 40:0 41:0.375727 42:0.00586721 43:0.00747638 44:0 45:0 46:0 47:1 48:0 49:0.904335 50:0.372341 51:0.259907 52:0.0192465 53:0.0735269 54:0.274979 55:0.0109741 56:0.203017 57:0.0799608 58:0 59:0.182182 60:0.53484 
0 1 0 0 1:0.0373652 2:0.129677 3:0.121302 4:0 5:0.581842 6:0.167179 7:0.0709078 8:0.063018 9:0.0279229 10:0.0556866 11:0.537232 12:0.316141 13:0.0820568 14:0.142808 15:0.0703082 16:0 17:0.704836 18:0.0820481 19:0.15208 20:0.0927165 21:0.169546 22:0.0351129 23:0.487322 24:0.215303 25:0.133771 26:0.0806903 27:0.303904 28:0.031195 29:0.325842 30:0.258369 31:0.0112143 32:0.259719 33:0.332453 34:0 35:0.349597 36:0.0582312 37:0.535712 38:0.148117 39:0.0901581 40:0.0138818 41:0.644442 42:0.103401 43:0.423812 44:0.0227741 45:0.0590515 46:0.0100623 47:0.824286 48:0.083826 49:0.0378092 50:0.200585 51:0.0740651 52:0 53:0.269999 54:0.455351 55:0.00373824 56:0 57:0.143268 58:0 59:0.652842 60:0.203891 
0.6741971080167014 1 0 0 1:0.166653 2:0.0208069 3:0.0491703 4:0 5:0.84022 6:0.089803 7:0.170285 8:0.0405374 9:0.0977926 10:0 11:0.836676 12:0.0249943 13:0.541021 14:0.0253059 15:0.0488384 16:0.0178895 17:0.735766 18:0.1722 19:0.307473 20:0 21:0.0012708 22:0.0114046 23:0.984431 24:0.00289365 25:0.222631 26:0.308488 27:0.493154 28:0 29:0.0244261 30:0.173932 31:0.00490349 32:0.30568 33:0.0601977 34:0 35:0.274309 36:0.359814 37:0.0186891 38:0 39:0 40:0 41:0.987662 42:0.0123384 43:0.206337 44:0.13113 45:0.27287 46:0.00772499 47:0.439312 48:0.148963 49:0.0319788 50:0.263058 51:0.229419 52:0.0166039 53:0.202338 54:0.288581 55:0.0166616 56:0.453204 57:0.133875 58:0 59:0.203346 60:0.209575 
0.3010797322353776 0 0 0 1:0.0165636 2:0.11868 3:0.0233717 4:0.471927 5:0.3195 6:0.0665225 7:0.0955209 8:0.531517 9:0.106948 10:0 11:0.228116 12:0.13342 13:0.0560152 14:0.138187 15:0.0136067 16:0.0152639 17:0.465021 18:0.367921 19:0.133771 20:0.0806903 21:0.303904 22:0.031195 23:0.325842 24:0.258369 25:0.0374745 26:0.746442 27:0.016333 28:0 29:0.223279 30:0.0139466 31:0.0522879 32:0 33:0.079046 34:0 35:0.916863 36:0.00409069 37:0.0671873 38:0 39:0 40:0 41:1 42:0 43:0.42913 44:0.113236 45:0.136105 46:0.00172521 47:0.318861 48:0.430073 49:0.00833137 50:0.332165 51:0.212594 52:0.0733805 53:0.298076 54:0.0837837 55:0.00373824 56:0 57:0 58:0 59:1 60:0 
0 1 0 0 1:0.0410977 2:0 3:0.0543136 4:0 5:0.777844 6:0.167843 7:0.0107406 8:0 9:0.165487 10:0 11:0.215454 12:0.619059 13:0.0266129 14:0.16065 15:0.181913 16:0 17:0.144163 18:0.513274 19:0.00373824 20:0 21:0 22:0 23:1 24:0 25:0.0560152 26:0.120209 27:0 28:0 29:0.809042 30:0.0707488 31:0.124327 32:0.347749 33:0.216861 34:0.00512154 35:0.239246 36:0.191022 37:0.61733 38:0.38307 39:0.284529 40:0.0948987 41:0.115248 42:0.122254 43:0.130098 44:0 45:0 46:0.0138723 47:0.986128 48:0 49:0.188374 50:0.208011 51:0.189457 52:0.0367622 53:0.475992 54:0.0897779 55:0.00373824 56:0 57:0.217055 58:0 59:0.659384 60:0.12356 
0.4990727078997298 1 1 1 1:0 2:0 3:0 4:0 5:0 6:0 7:0 8:0 9:0 10:0 11:0 12:0 13:0 14:0 15:0 16:0 17:0 18:0 19:0 20:0 21:0 22:0 23:0 24:0 25:0 26:0 27:0 28:0 29:0 30:0 31:0.0410977 32:0 33:0 34:0 35:1 36:0 37:0.11537 38:0 39:0 40:0 41:0.997989 42:0.00201087 43:0.0112143 44:0.181639 45:0.268278 46:0 47:0.488995 48:0.0610877 49:0.0331182 50:0.0598354 51:0.111943 52:0.475868 53:0.322168 54:0.0301852 55:0.0647187 56:0.0656775 57:0.51089 58:0.246656 59:0.117874 60:0.0589019 
0 1 1 1 1:0 2:0 3:0 4:0 5:0 6:0 7:0 8:0 9:0 10:0 11:0 12:0 13:0 14:0 15:0 16:0 17:0 18:0 19:0 20:0 21:0 22:0 23:0 24:0 25:0 26:0 27:0 28:0 29:0 30:0 31:0 32:0 33:0 34:0 35:0 36:0 37:0 38:0 39:0 40:0 41:0 42:0 43:0.00373824 44:0 45:0 46:0 47:1 48:0 49:0.00416576 50:0.423563 51:0.125119 52:0 53:0.380094 54:0.0712249 55:0.00373824 56:0 57:0 58:0 59:1 60:0 
1 1 1 0 1:0 2:0 3:0 4:0 5:0 6:0 7:0.0857687 8:0 9:0.00862671 10:0.077419 11:0.904133 12:0.00982164 13:0.078985 14:0.487124 15:0.0151468 16:0.0792939 17:0.414125 18:0.00431121 19:0.42913 20:0.113236 21:0.136105 22:0.00172521 23:0.318861 24:0.430073 25:0.245354 26:0.228922 27:0.267445 28:0.0328037 29:0.371992 30:0.0988378 31:0.00373824 32:0 33:0.0709301 34:0 35:0.646427 36:0.282642 37:0.0524895 38:0 39:0.0200924 40:0 41:0.122076 42:0.857832 43:0.0208259 44:0.411797 45:0.154082 46:0 47:0.295629 48:0.138493 49:0.61733 50:0.38307 51:0.284529 52:0.0948987 53:0.115248 54:0.122254 55:0.262838 56:0 57:0.00152166 58:0 59:0.998478 60:0 
1 1 1 0 1:0.00533236 2:0 3:0.458143 4:0 5:0.321179 6:0.220678 7:0.0374745 8:0.70642 9:0.100473 10:0.0346798 11:0.0704358 12:0.087992 13:0.188374 14:0.0889026 15:0.0437692 16:0.015712 17:0.813744 18:0.0378722 19:0.15208 20:0.44583 21:0 22:0.00656605 23:0.546771 24:0.000832992 25:0.0597409 26:0.24159 27:0.197103 28:0 29:0.495534 30:0.0657737 31:0.462034 32:0.452325 33:0.130646 34:0.0133234 35:0.263838 36:0.139868 37:0.0783426 38:0.112296 39:0.0516006 40:0.0992316 41:0.7054 42:0.0314722 43:0.0186891 44:0 45:0 46:0 47:1 48:0 49:0.169155 50:0.266729 51:0.216514 52:0.0804823 53:0.251031 54:0.185243 55:0.310199 56:0.734582 57:0.0159692 58:0.0252905 59:0.171219 60:0.0529392 
0 0.4713137605681725 0 0 1:0.00373824 2:0 3:0 4:0 5:1 6:0 7:0.022179 8:0.108662 9:0.117694 10:0 11:0.195021 12:0.578622 13:0.00373824 14:0 15:0 16:0 17:0.94121 18:0.0587903 19:0.262838 20:0.0189811 21:0.0784974 22:0.00419323 23:0.613194 24:0.285134 25:0.36059 26:0.0376 27:0.0377635 28:0.0099677 29:0.681573 30:0.233096 31:0.0709078 32:0.063018 33:0.0279229 34:0.0556866 35:0.537232 36:0.316141 37:0.00373824 38:0 39:0.0988769 40:0 41:0.901123 42:0 43:0.00373824 44:0 45:0.425049 46:0 47:0.484215 48:0.0907359 49:0.280151 50:0.0295342 51:0.0794879 52:0.0043497 53:0.680248 54:0.20638 55:0.376375 56:0.121992 57:0.399708 58:0.00185861 59:0.245368 60:0.231074 
1 1 1 0 1:0.0894783 2:0.124438 3:0.144584 4:0.0219923 5:0.536004 6:0.172981 7:0.334297 8:0.0219926 9:0.0729056 10:0.226731 11:0.611803 12:0.0665677 13:0.0112143 14:0.135402 15:0.279981 16:0 17:0.364519 18:0.220098 19:0.0541023 20:0.520909 21:0.142038 22:0 23:0.251704 24:0.0853484 25:0.00779337 26:0 27:0.625193 28:0 29:0.299882 30:0.0749254 31:0.0624055 32:0.312281 33:0.301339 34:0 35:0.205504 36:0.180875 37:0.0112143 38:0.205822 39:0.182397 40:0 41:0.554097 42:0.0576839 43:0.0438701 44:0.0405727 45:0.167791 46:0 47:0.364089 48:0.427548 49:0.159375 50:0 51:0 52:0 53:1 54:0 55:0.00833137 56:0.629399 57:0 58:0 59:0.282403 60:0.088198 
0 0 0 1 1:0 2:0 3:0 4:0 5:0 6:0 7:0 8:0 9:0 10:0 11:0 12:0 13:0 14:0 15:0 16:0 17:0 18:0 19:0 20:0 21:0 22:0 23:0 24:0 25:0 26:0 27:0 28:0 29:0 30:0 31:0 32:0 33:0 34:0 35:0 36:0 37:0.0224258 38:0 39:0 40:0 41:0.979604 42:0.0203962 43:0.166653 44:0.0208069 45:0.0491703 46:0 47:0.84022 48:0.089803 49:0.0448291 50:0 51:0.159787 52:0 53:0.582493 54:0.25772 55:0.0857687 56:0 57:0.0136709 58:0 59:0.9552 60:0.0311292 
0 1 1 0 1:0 2:0 3:0 4:0 5:0 6:0 7:0 8:0 9:0 10:0 11:0 12:0 13:0 14:0 15:0 16:0 17:0 18:0 19:0 20:0 21:0 22:0 23:0 24:0 25:0.456951 26:0.184523 27:0.177149 28:0.027176 29:0.455362 30:0.15579 31:0.0112143 32:0 33:0 34:0 35:1 36:0 37:0.159375 38:0 39:0 40:0 41:0.995661 42:0.00433894 43:0.0416337 44:0.462309 45:0.141116 46:0 47:0.165945 48:0.230629 49:0.0112143 50:0 51:0.108011 52:0 53:0.738274 54:0.153715 55:0.0233459 56:0 57:0.193231 58:0 59:0.195669 60:0.6111 
1 1 1 1 1:0 2:0 3:0 4:0 5:0 6:0 7:0 8:0 9:0 10:0 11:0 12:0 13:0 14:0 15:0 16:0 17:0 18:0 19:0 20:0 21:0 22:0 23:0 24:0 25:0 26:0 27:0 28:0 29:0 30:0 31:0.00373824 32:0 33:0 34:0 35:1 36:0 37:0.0112143 38:0 39:0.121034 40:0 41:0.827291 42:0.0516747 43:0.904335 44:0.372341 45:0.259907 46:0.0192465 47:0.0735269 48:0.274979 49:0.0186891 50:0.347012 51:0.0569478 52:0.0511069 53:0.518999 54:0.0259344 55:0.0968899 56:0.0768603 57:0.214429 58:0.203755 59:0.29888 60:0.206075 
0.1498123407650359 0 0 0 1:0.548905 2:0 3:0.0059252 4:0.00295415 5:0.989996 6:0.00112432 7:0.904335 8:0.372341 9:0.259907 10:0.0192465 11:0.0735269 12:0.274979 13:0.0149519 14:0.45143 15:0 16:0 17:0.540135 18:0.00843455 19:0.188374 20:0.0889026 21:0.0437692 22:0.015712 23:0.813744 24:0.0378722 25:0.15208 26:0.44583 27:0 28:0.00656605 29:0.546771 30:0.000832992 31:0.120223 32:0.447052 33:0.250454 34:0 35:0.110668 36:0.191825 37:0.0541023 38:0.326339 39:0.155722 40:0 41:0.225267 42:0.292672 43:0.107987 44:0.0366999 45:0 46:0 47:0.955072 48:0.00822844 49:0.119057 50:0.0590626 51:0.0426479 52:0.0956842 53:0.565346 54:0.237259 55:0.00373824 56:0 57:0 58:0 59:0.94121 60:0.0587903 
0 0 1 0 1:0 2:0 3:0 4:0 5:0 6:0 7:0 8:0 9:0 10:0 11:0 12:0 13:0 14:0 15:0 16:0 17:0 18:0 19:0 20:0 21:0 22:0 23:0 24:0 25:0.245354 26:0.228922 27:0.267445 28:0.0328037 29:0.371992 30:0.0988378 31:0.195575 32:0 33:0 34:0 35:1 36:0 37:0.0224258 38:0.127501 39:0.0502177 40:0 41:0.686494 42:0.135787 43:0.0186891 44:0 45:0.0763152 46:0 47:0.869381 48:0.0543037 49:0.245354 50:0.228922 51:0.267445 52:0.0328037 53:0.371992 54:0.0988378 55:0.0373652 56:0.221347 57:0.13077 58:0 59:0.397262 60:0.250621 
0 0.2432444122390418 0 0 1:0.0485592 2:0 3:0 4:0 5:0.995218 6:0.00478183 7:0.0092026 8:0.180616 9:0.0355689 10:0.399009 11:0.16208 12:0.222726 13:0.0143555 14:0 15:0.391241 16:0.150477 17:0.203749 18:0.254533 19:0.451015 20:0.0429207 21:0.0549407 22:0.00812729 23:0.715295 24:0.178717 25:0.262838 26:0.0189811 27:0.0784974 28:0.00419323 29:0.613194 30:0.285134 31:0.0977215 32:0.0807998 33:0.380296 34:0.0142799 35:0.275529 36:0.249095 37:0.262838 38:0.133395 39:0.185962 40:0.00310201 41:0.453621 42:0.22392 43:0.262838 44:0 45:0.00152166 46:0 47:0.998478 48:0 49:0.0298972 50:0.242537 51:0.186276 52:0 53:0.348234 54:0.222954 55:0.395822 56:0.00926549 57:0.00273699 58:0.0245627 59:0.931235 60:0.0321998 
0 0 1 0 1:0.0857687 2:0.0462116 3:0 4:0 5:0.953788 6:0 7:0.300688 8:0.0189773 9:0.0812847 10:0.00419239 11:0.706735 12:0.188811 13:0.307473 14:0 15:0.0012708 16:0.0114046 17:0.984431 18:0.00289365 19:0.300688 20:0.0189773 21:0.0812847 22:0.00419239 23:0.706735 24:0.188811 25:0.36059 26:0.0376 27:0.0377635 28:0.0099677 29:0.681573 30:0.233096 31:0.0569541 32:0 33:0.880882 34:0 35:0.115511 36:0.00360754 37:0.068394 38:0.0369333 39:0.607321 40:0.0326365 41:0.265144 42:0.0579654 43:0.36059 44:0.0376 45:0.0377635 46:0.0099677 47:0.681573 48:0.233096 49:0.304084 50:0.0185595 51:0.0027412 52:0.00820015 53:0.699501 54:0.270998 55:0.0124967 56:0.470943 57:0.247315 58:0 59:0.281741 60:0 
0 1 0 0 1:0 2:0 3:0 4:0 5:0 6:0 7:0.0522879 8:0 9:0.0152325 10:0 11:0.971761 12:0.0130069 13:0.0560152 14:0.138187 15:0.0136067 16:0.0152639 17:0.465021 18:0.367921 19:0.0102737 20:0.201838 21:0.119245 22:0 23:0.181124 24:0.497793 25:0.36059 26:0.0376 27:0.0377635 28:0.0099677 29:0.681573 30:0.233096 31:0.376375 32:0.121992 33:0.399708 34:0.00185861 35:0.245368 36:0.231074 37:0.166653 38:0.130885 39:0.300712 40:0.0289145 41:0.440447 42:0.0990413 43:0.213484 44:0.0439024 45:0.0590793 46:0 47:0.761673 48:0.135346 49:0.0448291 50:0 51:0 52:0 53:1 54:0 55:0.00373824 56:0 57:0.174045 58:0 59:0.528725 60:0.29723 
1 1 1 1 1:0 2:0 3:0 4:0 5:0 6:0 7:0.0482972 8:0.287833 9:0.226733 10:0.0282608 11:0.086098 12:0.371075 13:0.0143555 14:0 15:0.367576 16:0.0942499 17:0.191425 18:0.346749 19:0.00443649 20:0 21:0 22:0.31049 23:0.315307 24:0.374203 25:0.00980674 26:0 27:0.0293924 28:0 29:0.26787 30:0.702738 31:0.130098 32:0 33:0 34:0.0138479 35:0.984395 36:0.0017568 37:0.00373824 38:0 39:0 40:0 41:0.571575 42:0.428425 43:0.904335 44:0.372341 45:0.259907 46:0.0192465 47:0.0735269 48:0.274979 49:0.00373824 50:0 51:0.222213 52:0.166185 53:0.337526 54:0.274076 55:0.0374745 56:0.33644 57:0.21349 58:0.0330333 59:0.100637 60:0.316399 
1 1 1 0 1:0.0261619 2:0 3:0.268032 4:0.300676 5:0.427478 6:0.00381448 7:0.13744 8:0 9:0 10:0.0131323 11:0.986868 12:0 13:0.00747638 14:0 15:0.0441643 16:0 17:0.80499 18:0.150845 19:0.169155 20:0.266729 21:0.216514 22:0.0804823 23:0.251031 24:0.185243 25:0.0377192 26:0.312377 27:0.353721 28:0.0690089 29:0.10512 30:0.159773 31:0.0894783 32:0.313888 33:0.080834 34:0 35:0.520014 36:0.0852637 37:0.533041 38:0.0879259 39:0.0369393 40:0 41:0.836364 42:0.0387704 43:0.0457916 44:0.395404 45:0.261917 46:0 47:0.258055 48:0.0846235 49:0.11168 50:0.186957 51:0.284723 52:0.049562 53:0.33554 54:0.143218 55:0.0261619 56:0.391646 57:0.0706999 58:0.0288402 59:0.410028 60:0.0987867 
0.8489201664337047 0 0 0 1:0.423812 2:0.0227741 3:0.0590515 4:0.0100623 5:0.824286 6:0.083826 7:0.314227 8:0.128353 9:0.222629 10:0.0436232 11:0.385411 12:0.219984 13:0.220608 14:0 15:0 16:0 17:1 18:0 19:0.0208259 20:0.754427 21:0.059428 22:0 23:0.1354 24:0.0507447 25:0.00747638 26:0.337507 27:0 28:0 29:0.605739 30:0.056754 31:0.00833137 32:0.460555 33:0.113372 34:0 35:0.206645 36:0.219428 37:0.456951 38:0.184523 39:0.177149 40:0.027176 41:0.455362 42:0.15579 43:0.0968899 44:0.0903748 45:0.139415 46:0.0133101 47:0.702866 48:0.0540342 49:0.00373824 50:0 51:0 52:0 53:0.727392 54:0.272608 55:0.00373824 56:0 57:0 58:0 59:0.762014 60:0.237986 
0 1 0 0 1:0.00373824 2:0 3:0 4:0 5:1 6:0 7:0.293872 8:0.0132716 9:0 10:0.0175914 11:0.964674 12:0.0044634 13:0.456951 14:0.184523 15:0.177149 16:0.027176 17:0.455362 18:0.15579 19:0.451015 20:0.0429207 21:0.0549407 22:0.00812729 23:0.715295 24:0.178717 25:0.376375 26:0.121992 27:0.399708 28:0.00185861 29:0.245368 30:0.231074 31:0.334297 32:0.0219926 33:0.0729056 34:0.226731 35:0.611803 36:0.0665677 37:0.0597409 38:0.24159 39:0.197103 40:0 41:0.495534 42:0.0657737 43:0.36059 44:0.0376 45:0.0377635 46:0.0099677 47:0.681573 48:0.233096 49:0.124737 50:0.226946 51:0.142458 52:0 53:0.203655 54:0.426942 55:0.132315 56:0.166208 57:0.266216 58:0.0146872 59:0.198868 60:0.354021 
0 1 1 1 1:0 2:0 3:0 4:0 5:0 6:0 7:0 8:0 9:0 10:0 11:0 12:0 13:0 14:0 15:0 16:0 17:0 18:0 19:0 20:0 21:0 22:0 23:0 24:0 25:0 26:0 27:0 28:0 29:0 30:0 31:0 32:0 33:0 34:0 35:0 36:0 37:0 38:0 39:0 40:0 41:0 42:0 43:0.00373824 44:0 45:0 46:0 47:1 48:0 49:0.00373824 50:0 51:0.0610671 52:0 53:0.556541 54:0.382392 55:0.00747638 56:0 57:0.0505142 58:0 59:0.92073 60:0.0287556 
0 1 1 0 1:0 2:0 3:0 4:0 5:0 6:0 7:0.61733 8:0.38307 9:0.284529 10:0.0948987 11:0.115248 12:0.122254 13:0.0149519 14:0 15:0.231802 16:0 17:0.768198 18:0 19:0.00373824 20:0 21:0 22:0 23:1 24:0 25:0.219814 26:0.30246 27:0.198546 28:0.0178182 29:0.120631 30:0.360545 31:0.0149519 32:0 33:0.231802 34:0 35:0.768198 36:0 37:0.0597409 38:0 39:0.145869 40:0 41:0.850809 42:0.00332148 43:0.0151757 44:0.160947 45:0.586366 46:0 47:0.14443 48:0.108257 49:0.0126084 50:0 51:0.198769 52:0.0810826 53:0.164682 54:0.555467 55:0.00373824 56:0 57:0.0845927 58:0 59:0.770942 60:0.144465 
0 1 0.1699531097200112 0 1:0.0671873 2:0 3:0.0118022 4:0 5:0.968042 6:0.0201555 7:0.0981277 8:0 9:0.717701 10:0.026837 11:0.190774 12:0.0646881 13:0.0709078 14:0 15:0 16:0 17:0.996723 18:0.00327673 19:0.350795 20:0 21:0.00110312 22:0.00989975 23:0.985229 24:0.00376775 25:0.00583746 26:0 27:0.0670417 28:0.150414 29:0.305495 30:0.47705 31:0.188374 32:0.208011 33:0.189457 34:0.0367622 35:0.475992 36:0.0897779 37:0.0224258 38:0 39:0 40:0 41:1 42:0 43:0.462034 44:0.452325 45:0.130646 46:0.0133234 47:0.263838 48:0.139868 49:0.124327 50:0.347749 51:0.216861 52:0.00512154 53:0.239246 54:0.191022 55:0.904335 56:0.372341 57:0.259907 58:0.0192465 59:0.0735269 60:0.274979 
0 1 0 0 1:0.0522879 2:0.117339 3:0.0173307 4:0 5:0.737077 6:0.128253 7:0.00747638 8:0 9:0 10:0 11:1 12:0 13:0.0448291 14:0 15:0.109271 16:0 17:0.746885 18:0.143845 19:0.202861 20:0.110133 21:0.0791636 22:0 23:0.266843 24:0.54386 25:0.571978 26:0.129501 27:0.113818 28:0.00211917 29:0.748916 30:0.00564576 31:0.15208 32:0.0244966 33:0.00241207 34:0.0649401 35:0.901286 36:0.00686544 37:0.143792 38:0.273854 39:0.328231 40:0.0208615 41:0.305068 42:0.0719867 43:0.00863933 44:0.330337 45:0.178897 46:0 47:0.148218 48:0.342548 49:0.0501606 50:0.279897 51:0.207954 52:0 53:0.205504 54:0.306645 55:0.00373824 56:0 57:0 58:0 59:0.727392 60:0.272608 
1 1 0 0 1:0 2:0 3:0 4:0 5:0 6:0 7:0.486018 8:0.128429 9:0.153623 10:0.0462358 11:0.606123 12:0.0655885 13:0.219814 14:0.30246 15:0.198546 16:0.0178182 17:0.120631 18:0.360545 19:0.00373824 20:0 21:0.23654 22:0 23:0.718576 24:0.0448841 25:0.0124967 26:0.466133 27:0.045898 28:0 29:0.418295 30:0.0696741 31:0.0149519 32:0 33:0.190831 34:0 35:0.772958 36:0.0362107 37:0.0224258 38:0.293593 39:0.125271 40:0.0432395 41:0.526925 42:0.010971 43:0.0560152 44:0.169772 45:0.208959 46:0 47:0.571309 48:0.0499596 49:0.0261619 50:0.101094 51:0.0995427 52:0 53:0.635033 54:0.16433 55:0.0597409 56:0.0814824 57:0.216626 58:0.0120005 59:0.389974 60:0.299917 
1 1 1 0 1:0 2:0 3:0 4:0 5:0 6:0 7:0 8:0 9:0 10:0 11:0 12:0 13:0 14:0 15:0 16:0 17:0 18:0 19:0.221233 20:0.81902 21:0.00149343 22:0 23:0.176936 24:0.00255044 25:0.0597409 26:0.0599176 27:0.00589981 28:0 29:0.860295 30:0.0738873 31:0.00747638 32:0 33:0.277479 34:0 35:0.722521 36:0 37:0.0091063 38:0 39:0.182082 40:0 41:0.36876 42:0.449157 43:0.61733 44:0.38307 45:0.284529 46:0.0948987 47:0.115248 48:0.122254 49:0.00373824 50:0 51:0.356689 52:0 53:0.541786 54:0.101524 55:0.0112143 56:0 57:0 58:0 59:1 60:0 
0 0 0 1 1:0 2:0 3:0 4:0 5:0 6:0 7:0 8:0 9:0 10:0 11:0 12:0 13:0 14:0 15:0 16:0 17:0 18:0 19:0 20:0 21:0 22:0 23:0 24:0 25:0.225191 26:0.885438 27:0.00475555 28:0.0213389 29:0.0577868 30:0.0306808 31:0.0112143 32:0 33:0.078266 34:0.351193 35:0.42797 36:0.142571 37:0.0112143 38:0 39:0 40:0 41:0.923119 42:0.0768805 43:0.00373824 44:0 45:0 46:0 47:1 48:0 49:0.334297 50:0.0219926 51:0.0729056 52:0.226731 53:0.611803 54:0.0665677 55:0.00373824 56:0 57:0.0635354 58:0.285094 59:0.579035 60:0.072336 
0 1 0 0 1:0.0857687 2:0 3:0 4:0 5:1 6:0 7:0.357546 8:0.0286519 9:0.0329142 10:0.0379778 11:0.0428523 12:0.857604 13:0.314227 14:0.128353 15:0.222629 16:0.0436232 17:0.385411 18:0.219984 19:0.220608 20:0 21:0 22:0 23:1 24:0 25:0.0410977 26:0.118033 27:0.0987883 28:0.0782258 29:0.582557 30:0.122396 31:0.00552166 32:0 33:0.117302 34:0.526352 35:0.356346 36:0 37:0.0233459 38:0 39:0.0739345 40:0 41:0.224603 42:0.701463 43:0.00373824 44:0 45:0 46:0 47:1 48:0 49:0.0843267 50:0.0605382 51:0.0536483 52:0 53:0.271627 54:0.614187 55:0.0261619 56:0 57:0.114754 58:0 59:0.665519 60:0.219727 
1 1 1 1 1:0 2:0 3:0 4:0 5:0 6:0 7:0.155729 8:0.48116 9:0.00394813 10:0.00590531 11:0.503743 12:0.00524418 13:0.00747638 14:0 15:0 16:0.27763 17:0.563875 18:0.158495 19:0.00373824 20:0 21:0 22:0 23:1 24:0 25:0.0671873 26:0.093766 27:0.270057 28:0 29:0.378644 30:0.257534 31:0.00552166 32:0.231502 33:0.227949 34:0.306854 35:0.207743 36:0.0259523 37:0.00373824 38:0 39:0.226379 40:0 41:0.687709 42:0.0859121 43:0.011043 44:0.307563 45:0.0605686 46:0.407672 47:0.137999 48:0.0861978 49:0.0814461 50:0 51:0.678227 52:0.0305861 53:0.279546 54:0.0116408 55:0.0128833 56:0 57:0 58:0.775105 59:0.224895 60:0 
1 1 0 0 1:0 2:0 3:0 4:0 5:0 6:0 7:0.0364101 8:0.0530731 9:0.078388 10:0.0234493 11:0.381011 12:0.464079 13:0.220608 14:0.0162338 15:0.0415602 16:0.0071726 17:0.874067 18:0.0609661 19:0.0203118 20:0.159743 21:0.165156 22:0.0705795 23:0.215024 24:0.389497 25:0.00373824 26:0 27:0 28:0 29:1 30:0 31:0.225191 32:0.324264 33:0.193895 34:0.00520981 35:0.16401 36:0.312622 37:0.00416576 38:0.527044 39:0 40:0 41:0.472956 42:0 43:0.0373652 44:0.221347 45:0.13077 46:0 47:0.397262 48:0.250621 49:0.0121415 50:0.243973 51:0.0720687 52:0 53:0.328402 54:0.355556 55:0.00747638 56:0 57:0.0505142 58:0 59:0.92073 60:0.0287556 
0 0 0 1 1:0 2:0 3:0 4:0 5:0 6:0 7:0.15208 8:0.190306 9:0.112431 10:0 11:0.583482 12:0.113782 13:0.462846 14:0.164241 15:0.166966 16:0.0058838 17:0.533775 18:0.129134 19:0.0820568 20:0 21:0 22:0 23:0.997169 24:0.00283117 25:0.571978 26:0.129501 27:0.113818 28:0.00211917 29:0.748916 30:0.00564576 31:0.548905 32:0 33:0.0059252 34:0.00295415 35:0.989996 36:0.00112432 37:0.126421 38:0.150332 39:0.111019 40:0.0747239 41:0.573341 42:0.0905842 43:0.00416576 44:0.453225 45:0.0892541 46:0 47:0.406712 48:0.0508085 49:0.177535 50:0.283555 51:0.147978 52:0.0167045 53:0.407128 54:0.144634 55:0.129942 56:0.0526538 57:0.018146 58:0.825874 59:0.0472501 60:0.0560758 
1 1 0 0 1:0.173912 2:0 3:0 4:0 5:0.998673 6:0.00132723 7:0.202861 8:0.110133 9:0.0791636 10:0 11:0.266843 12:0.54386 13:0.00747638 14:0.264592 15:0.260532 16:0 17:0.474876 18:0 19:0.124327 20:0.347749 21:0.216861 22:0.00512154 23:0.239246 24:0.191022 25:0.0373652 26:0.16295 27:0.069528 28:0 29:0.487422 30:0.2801 31:0.00492219 32:0.30274 33:0.357713 34:0 35:0.27167 36:0.0678769 37:0.0298972 38:0 39:0 40:0 41:0.992253 42:0.00774733 43:0.0485592 44:0.15032 45:0.113477 46:0 47:0.584538 48:0.151664 49:0.0149519 50:0 51:0.0214765 52:0 53:0.782913 54:0.195611 55:0.61733 56:0.38307 57:0.284529 58:0.0948987 59:0.115248 60:0.122254 
1 1 1 1 1:0 2:0 3:0 4:0 5:0 6:0 7:0.0112143 8:0 9:0 10:0 11:0.979604 12:0.0203962 13:0.0298972 14:0 15:0.0266992 16:0 17:0.973301 18:0 19:0.00373824 20:0 21:0 22:0 23:1 24:0 25:0.133771 26:0.215789 27:0.189712 28:0.0136203 29:0.497939 30:0.0829401 31:0.462034 32:0.452325 33:0.130646 34:0.0133234 35:0.263838 36:0.139868 37:0.0360807 38:0.122536 39:0.530883 40:0.02707 41:0.21992 42:0.0995916 43:0.0261619 44:0 45:0.268032 46:0.300676 47:0.427478 48:0.00381448 49:0.904335 50:0.372341 51:0.259907 52:0.0192465 53:0.0735269 54:0.274979 55:0.00833137 56:0.316254 57:0.3114 58:0 59:0.141899 60:0.230447 
0.7006968582620192 0 0 0 1:0.130098 2:0 3:0.00290371 4:0.0130294 5:0.926213 6:0.0578536 7:0.0499478 8:0.501697 9:0.0082333 10:0 11:0.487727 12:0.00234343 13:0.00373824 14:0 15:0 16:0 17:1 18:0 19:0.00747638 20:0 21:0.0453033 22:0 23:0.825751 24:0.128946 25:0.00747638 26:0 27:0 28:0 29:0.969715 30:0.0302854 31:0.379188 32:0 33:0.972669 34:0 35:0.0273314 36:0 37:0.188374 38:0.108849 39:0.0495702 40:0 41:0.622699 42:0.218882 43:0.0541023 44:0.326339 45:0.155722 46:0 47:0.225267 48:0.292672 49:0.0166616 50:0.596417 51:0.0440449 52:0 53:0.267604 54:0.0919338 55:0.0151764 56:0.373455 57:0.0612874 58:0 59:0.11171 60:0.453548 
0 0.4184550932187572 1 0 1:0 2:0 3:0 4:0 5:0 6:0 7:0 8:0 9:0 10:0 11:0 12:0 13:0 14:0 15:0 16:0 17:0 18:0 19:0.0112143 20:0.19986 21:0.0393586 22:0.0883042 23:0.538046 24:0.134431 25:0.300688 26:0.108737 27:0.162133 28:0 29:0.578498 30:0.150633 31:0.0820568 32:0 33:0 34:0 35:0.997169 36:0.00283117 37:0.0124967 38:0.467162 39:0.0613324 40:0 41:0.279479 42:0.192027 43:0.00373824 44:0 45:0 46:0 47:1 48:0 49:0.103812 50:0.0327083 51:0.409021 52:0.130064 53:0.190785 54:0.237422 55:0.177535 56:0.283555 57:0.147978 58:0.0167045 59:0.407128 60:0.144634 
0 0 0 1 1:0 2:0 3:0 4:0 5:0 6:0 7:0 8:0 9:0 10:0 11:0 12:0 13:0 14:0 15:0 16:0 17:0 18:0 19:0 20:0 21:0 22:0 23:0 24:0 25:0 26:0 27:0 28:0 29:0 30:0 31:0 32:0 33:0 34:0 35:0 36:0 37:0 38:0 39:0 40:0 41:0 42:0 43:0.00373824 44:0 45:0 46:0 47:1 48:0 49:0.0522879 50:0 51:0.0154333 52:0 53:0.984567 54:0 55:0.00373824 56:0 57:0 58:0 59:1 60:0 
1 1 1 0 1:0.0843267 2:0.0605382 3:0.0536483 4:0 5:0.271627 6:0.614187 7:0.159375 8:0 9:0 10:0 11:0.995661 12:0.00433894 13:0.202861 14:0.110133 15:0.0791636 16:0 17:0.266843 18:0.54386 19:0.0931854 20:0.13268 21:0.269454 22:0.00732779 23:0.372075 24:0.218463 25:0.177535 26:0.283555 27:0.147978 28:0.0167045 29:0.407128 30:0.144634 31:0.0457916 32:0.402966 33:0.227248 34:0 35:0.295864 36:0.0739216 37:0.0336317 38:0.227806 39:0.0717791 40:0.140912 41:0.367968 42:0.191535 43:0.00373824 44:0 45:0.171191 46:0 47:0.780083 48:0.048726 49:0.00747638 50:0 51:0.111442 52:0 53:0.677093 54:0.211465 55:0.177535 56:0.283555 57:0.147978 58:0.0167045 59:0.407128 60:0.144634 
0 0 1 0 1:0.0112143 2:0 3:0 4:0.247124 5:0.752876 6:0 7:0.904335 8:0.372341 9:0.259907 10:0.0192465 11:0.0735269 12:0.274979 13:0.103812 14:0.0327083 15:0.409021 16:0.130064 17:0.190785 18:0.237422 19:0.0857687 20:0 21:0.0693434 22:0 23:0.908452 24:0.0222043 25:0.0857687 26:0.199348 27:0.26957 28:0.164413 29:0.274298 30:0.092371 31:0.159375 32:0 33:0 34:0 35:1 36:0 37:0.0851122 38:0.0337693 39:0.691623 40:0 41:0.242429 42:0.0321784 43:0.350795 44:0 45:0.00110312 46:0.00989975 47:0.985229 48:0.00376775 49:0.0166616 50:0.35883 51:0.309158 52:0 53:0.241503 54:0.0905094 55:0.00574253 56:0 57:0.295415 58:0.284052 59:0.192306 60:0.228227 
1 1 1 1 1:0 2:0 3:0 4:0 5:0 6:0 7:0 8:0 9:0 10:0 11:0 12:0 13:0 14:0 15:0 16:0 17:0 18:0 19:0.00373824 20:0 21:0 22:0 23:0.888948 24:0.111052 25:0.0814461 26:0 27:0.678227 28:0.0305861 29:0.279546 30:0.0116408 31:0.116223 32:0.0548716 33:0.126969 34:0 35:0.0492403 36:0.768919 37:0.0112143 38:0.266748 39:0.105062 40:0 41:0.359058 42:0.269132 43:0.0374745 44:0.891592 45:0.0195091 46:0 47:0.088899 48:0 49:0.0374745 50:0.463771 51:0.0405915 52:0.0910704 53:0.323692 54:0.0808746 55:0.00747638 56:0 57:0 58:0 59:0.864935 60:0.135065 
0 0 0 1 1:0 2:0 3:0 4:0 5:0 6:0 7:0 8:0 9:0 10:0 11:0 12:0 13:0 14:0 15:0 16:0 17:0 18:0 19:0 20:0 21:0 22:0 23:0 24:0 25:0 26:0 27:0 28:0 29:0 30:0 31:0 32:0 33:0 34:0 35:0 36:0 37:0.00747638 38:0 39:0 40:0 41:1 42:0 43:0.0560152 44:0.0613397 45:0.102677 46:0 47:0.825668 48:0.0103147 49:0.0336317 50:0.154778 51:0.213365 52:0.256447 53:0.312511 54:0.0628986 55:0.00747638 56:0 57:0 58:0 59:1 60:0 
0 0 0 1 1:0 2:0 3:0 4:0 5:0 6:0 7:0 8:0 9:0 10:0 11:0 12:0 13:0 14:0 15:0 16:0 17:0 18:0 19:0 20:0 21:0 22:0 23:0 24:0 25:0 26:0 27:0 28:0 29:0 30:0 31:0 32:0 33:0 34:0 35:0 36:0 37:0 38:0 39:0 40:0 41:0 42:0 43:0.0112143 44:0 45:0 46:0 47:1 48:0 49:0.107987 50:0 51:0.00610551 52:0.0410946 53:0.806824 54:0.145975 55:0.107987 56:0 57:0 58:0 59:1 60:0 
1 0 0 0 1:0.188374 2:0.0889026 3:0.0437692 4:0.015712 5:0.813744 6:0.0378722 7:0.15208 8:0.44583 9:0 10:0.00656605 11:0.546771 12:0.000832992 13:0.462034 14:0.452325 15:0.130646 16:0.0133234 17:0.263838 18:0.139868 19:0.0336317 20:0 21:0.0436134 22:0 23:0.894318 24:0.0620682 25:0.00833137 26:0.444435 27:0.30633 28:0 29:0.199412 30:0.0498231 31:0.0857687 32:0.244647 33:0.127858 34:0.0249444 35:0.388416 36:0.214134 37:0.00373824 38:0 39:0.305027 40:0 41:0.694973 42:0 43:0.11537 44:0.174193 45:0.13531 46:0.0598607 47:0.538422 48:0.0922146 49:0.11537 50:0.0790291 51:0.111537 52:0.0116392 53:0.732825 54:0.0649697 55:0.0118948 56:0 57:0.592624 58:0 59:0.372478 60:0.0348988 
1 0 0.9068365365221276 0 1:0.166653 2:0 3:0 4:0 5:1 6:0 7:0.0857687 8:0 9:0 10:0 11:1 12:0 13:0.0166616 14:0.35883 15:0.309158 16:0 17:0.241503 18:0.0905094 19:0.0336317 20:0.296721 21:0.0584336 22:0 23:0.599107 24:0.0457377 25:0.00416576 26:0.386827 27:0.114267 28:0 29:0.347128 30:0.151778 31:0.0149519 32:0.193095 33:0.0380264 34:0 35:0.693114 36:0.0757639 37:0.0457916 38:0.395404 39:0.261917 40:0 41:0.258055 42:0.0846235 43:0.212471 44:0.19596 45:0.29851 46:0.0127325 47:0.222398 48:0.2704 49:0.0224258 50:0.120342 51:0.177743 52:0 53:0.647951 54:0.0539636 55:0.00833137 56:0.4694 57:0.254209 58:0 59:0.210614 60:0.0657773 
0 1 0 1 1:0.535712 2:0.148117 3:0.0901581 4:0.0138818 5:0.644442 6:0.103401 7:0.423812 8:0.0227741 9:0.0590515 10:0.0100623 11:0.824286 12:0.083826 13:0.00747638 14:0.337507 15:0 16:0 17:0.605739 18:0.056754 19:0.0112143 20:0.266748 21:0.105062 22:0 23:0.359058 24:0.269132 25:0.00747638 26:0.312281 27:0.0922466 28:0 29:0.560465 30:0.035008 31:0.00373824 32:0 33:0.0681773 34:0 35:0.621339 36:0.310483 37:0.262838 38:0 39:0.00152166 40:0 41:0.998478 42:0 43:0.00373824 44:0 45:0.0845927 46:0 47:0.770942 48:0.144465 49:0.011043 50:0 51:0.0348485 52:0.469113 53:0.158797 54:0.337242 55:0.0569959 56:0.0805948 57:0.103165 58:0.551944 59:0.0361618 60:0.228134 
0 0 0 1 1:0.00373824 2:0 3:0 4:0 5:0.888948 6:0.111052 7:0.535712 8:0.148117 9:0.0901581 10:0.0138818 11:0.644442 12:0.103401 13:0.423812 14:0.0227741 15:0.0590515 16:0.0100623 17:0.824286 18:0.083826 19:0.0112143 20:0.266797 21:0 22:0 23:0.718249 24:0.0149545 25:0.0336317 26:0 27:0 28:0.313864 29:0.637469 30:0.0486664 31:0.0317455 32:0.205546 33:0.0877031 34:0 35:0.184451 36:0.522299 37:0.0661638 38:0 39:0.0384181 40:0.88657 41:0.0500181 42:0.0249941 43:0.535712 44:0.148117 45:0.0901581 46:0.0138818 47:0.644442 48:0.103401 49:0.423812 50:0.0227741 51:0.0590515 52:0.0100623 53:0.824286 54:0.083826 55:0.0092026 56:0 57:0.0502371 58:0.563555 59:0.22892 60:0.157288 
1 1 1 0 1:0.904335 2:0.372341 3:0.259907 4:0.0192465 5:0.0735269 6:0.274979 7:0.191978 8:0.339598 9:0.120198 10:0.0851605 11:0.428291 12:0.0267522 13:0.0522879 14:0 15:0.0152325 16:0 17:0.971761 18:0.0130069 19:0.317592 20:0 21:0.0121293 22:0.0054426 23:0.972762 24:0.00966655 25:0.904335 26:0.372341 27:0.259907 28:0.0192465 29:0.0735269 30:0.274979 31:0.00373824 32:0 33:0.0613176 34:0.275142 35:0.558823 36:0.104717 37:0.0208259 38:0.342951 39:0.222874 40:0.0303052 41:0.307755 42:0.0961157 43:0.245354 44:0.228922 45:0.267445 46:0.0328037 47:0.371992 48:0.0988378 49:0.11168 50:0.186957 51:0.284723 52:0.049562 53:0.33554 54:0.143218 55:0.0261619 56:0.391646 57:0.0706999 58:0.0288402 59:0.410028 60:0.0987867 
1 0 1 0 1:0 2:0 3:0 4:0 5:0 6:0 7:0 8:0 9:0 10:0 11:0 12:0 13:0 14:0 15:0 16:0 17:0 18:0 19:0.0748439 20:0.666282 21:0.00364476 22:0 23:0.298952 24:0.0311221 25:0.0956897 26:0.198282 27:0.326328 28:0.0187729 29:0.24148 30:0.215138 31:0.0112143 32:0 33:0 34:0 35:1 36:0 37:0.133771 38:0.215789 39:0.189712 40:0.0136203 41:0.497939 42:0.0829401 43:0.143792 44:0.273854 45:0.328231 46:0.0208615 47:0.305068 48:0.0719867 49:0.0894783 50:0.164425 51:0.0388564 52:0 53:0.708242 54:0.0884772 55:0.0560152 56:0 57:0.0676397 58:0 59:0.924659 60:0.00770088 
0 0 0 1 1:0 2:0 3:0 4:0 5:0 6:0 7:0 8:0 9:0 10:0 11:0 12:0 13:0 14:0 15:0 16:0 17:0 18:0 19:0 20:0 21:0 22:0 23:0 24:0 25:0 26:0 27:0 28:0 29:0 30:0 31:0 32:0 33:0 34:0 35:0 36:0 37:0.0373652 38:0 39:0 40:0 41:1 42:0 43:0.191978 44:0.339598 45:0.120198 46:0.0851605 47:0.428291 48:0.0267522 49:0.202755 50:0 51:0.00594276 52:0 53:0.99293 54:0.00112765 55:0.0149519 56:0 57:0 58:0 59:1 60:0 
0 1 1 1 1:0 2:0 3:0 4:0 5:0 6:0 7:0 8:0 9:0 10:0 11:0 12:0 13:0 14:0 15:0 16:0 17:0 18:0 19:0 20:0 21:0 22:0 23:0 24:0 25:0 26:0 27:0 28:0 29:0 30:0 31:0 32:0 33:0 34:0 35:0 36:0 37:0.00373824 38:0 39:0 40:0 41:1 42:0 43:0.0746262 44:0.0683819 45:0.38604 46:0.100711 47:0.409094 48:0.0357742 49:0.068394 50:0.0369333 51:0.607321 52:0.0326365 53:0.265144 54:0.0579654 55:0.0224258 56:0 57:0 58:0 59:0.989697 60:0.0103032 
0 0.4486833600449836 1 1 1:0 2:0 3:0 4:0 5:0 6:0 7:0 8:0 9:0 10:0 11:0 12:0 13:0 14:0 15:0 16:0 17:0 18:0 19:0 20:0 21:0 22:0 23:0 24:0 25:0 26:0 27:0 28:0 29:0 30:0 31:0 32:0 33:0 34:0 35:0 36:0 37:0.0373652 38:0 39:0.0309335 40:0 41:0.939718 42:0.0293486 43:0.0457916 44:0.455494 45:0.154938 46:0.0365912 47:0.297272 48:0.055705 49:0.0820568 50:0.0405471 51:0.115782 52:0 53:0.800489 54:0.0431823 55:0.635978 56:0.0205589 57:0.041499 58:0.00454178 59:0.927062 60:0.00633804 
0 0 1 0 1:0 2:0 3:0 4:0 5:0 6:0 7:0 8:0 9:0 10:0 11:0 12:0 13:0 14:0 15:0 16:0 17:0 18:0 19:0 20:0 21:0 22:0 23:0 24:0 25:0.245354 26:0.228922 27:0.267445 28:0.0328037 29:0.371992 30:0.0988378 31:0.195575 32:0 33:0 34:0 35:1 36:0 37:0.0224258 38:0.127501 39:0.0502177 40:0 41:0.686494 42:0.135787 43:0.0186891 44:0 45:0.0763152 46:0 47:0.869381 48:0.0543037 49:0.245354 50:0.228922 51:0.267445 52:0.0328037 53:0.371992 54:0.0988378 55:0.0373652 56:0.221347 57:0.13077 58:0 59:0.397262 60:0.250621 
0 1 1 0 1:0.00490349 2:0 3:0.275217 4:0 5:0.313526 6:0.411257 7:0.0405861 8:0.0461398 9:0.449774 10:0.020386 11:0.124214 12:0.359487 13:0.0261619 14:0 15:0.159805 16:0 17:0.784213 18:0.0559817 19:0.00656287 20:0 21:0.529155 22:0 23:0.301406 24:0.169439 25:0.00653794 26:0 27:0.341631 28:0 29:0.239498 30:0.418871 31:0.773114 32:0 33:0.00528323 34:0.00338668 35:0.945788 36:0.0455425 37:0.0224258 38:0 39:0.136574 40:0 41:0.746807 42:0.116619 43:0.00747638 44:0 45:0.197329 46:0 47:0.51382 48:0.288851 49:0.122741 50:0.105534 51:0.277601 52:0.0199836 53:0.44646 54:0.150421 55:0.13744 56:0.0775714 57:0.0280064 58:0.022849 59:0.858529 60:0.0130441 
0 1 0 0 1:0.0820568 2:0 3:0 4:0 5:1 6:0 7:0.188374 8:0.108849 9:0.0495702 10:0 11:0.622699 12:0.218882 13:0.00373824 14:0 15:0 16:0 17:1 18:0 19:0.00373824 20:0 21:0 22:0 23:0.888948 24:0.111052 25:0.42913 26:0.113236 27:0.136105 28:0.00172521 29:0.318861 30:0.430073 31:0.122842 32:0 33:0.712725 34:0 35:0.280536 36:0.0067396 37:0.100592 38:0 39:0 40:0 41:1 42:0 43:0.0130753 44:0 45:0 46:0 47:0.461687 48:0.538313 49:0.354652 50:0.601413 51:0.135737 52:0.0059713 53:0.121279 54:0.1356 55:0.053188 56:0.196481 57:0.0435298 58:0 59:0.132238 60:0.627752 
0 0 1 0 1:0 2:0 3:0 4:0 5:0 6:0 7:0 8:0 9:0 10:0 11:0 12:0 13:0 14:0 15:0 16:0 17:0 18:0 19:0 20:0 21:0 22:0 23:0 24:0 25:0.00984414 26:0 27:0.724778 28:0 29:0.275222 30:0 31:0.0112143 32:0 33:0.170019 34:0 35:0.664064 36:0.165917 37:0.00373824 38:0 39:0 40:0 41:1 42:0 43:0.300688 44:0.108737 45:0.162133 46:0 47:0.578498 48:0.150633 49:0.00747638 50:0 51:0 52:0 53:1 54:0 55:0.00373824 56:0 57:0.354269 58:0 59:0.645731 60:0 
0 1 1 0 1:0.262838 2:0.133395 3:0.185962 4:0.00310201 5:0.453621 6:0.22392 7:0.571978 8:0.129501 9:0.113818 10:0.00211917 11:0.748916 12:0.00564576 13:0.548905 14:0 15:0.0059252 16:0.00295415 17:0.989996 18:0.00112432 19:0.0224258 20:0.0647769 21:0.197727 22:0.228963 23:0.348774 24:0.159759 25:0.00373824 26:0 27:0 28:0 29:0.94121 30:0.0587903 31:0.0192763 32:0 33:0.714384 34:0 35:0.138523 36:0.147093 37:0.143792 38:0.273854 39:0.328231 40:0.0208615 41:0.305068 42:0.0719867 43:0.035671 44:0.214809 45:0.46004 46:0 47:0.0963818 48:0.22877 49:0.0149519 50:0.13908 51:0.0273892 52:0.0614501 53:0.499228 54:0.272852 55:0.0336317 56:0.0578623 57:0.341846 58:0 59:0.467316 60:0.132976 
1 1 1 1 1:0 2:0 3:0 4:0 5:0 6:0 7:0 8:0 9:0 10:0 11:0 12:0 13:0 14:0 15:0 16:0 17:0 18:0 19:0.0485592 20:0.119272 21:0.0880815 22:0 23:0.695707 24:0.0969394 25:0.904335 26:0.372341 27:0.259907 28:0.0192465 29:0.0735269 30:0.274979 31:0.105614 32:0.359219 33:0.210616 34:0 35:0.0146524 36:0.415513 37:0.0485592 38:0.119272 39:0.0880815 40:0 41:0.695707 42:0.0969394 43:0.904335 44:0.372341 45:0.259907 46:0.0192465 47:0.0735269 48:0.274979 49:0.0298972 50:0.174 51:0.0513991 52:0.0768788 53:0.624573 54:0.0731483 55:0.0968899 56:0.0768603 57:0.214429 58:0.203755 59:0.29888 60:0.206075 
0 1 1 0 1:0 2:0 3:0 4:0 5:0 6:0 7:0 8:0 9:0 10:0 11:0 12:0 13:0 14:0 15:0 16:0 17:0 18:0 19:0 20:0 21:0 22:0 23:0 24:0 25:0.0112143 26:0 27:0.274412 28:0 29:0.535903 30:0.189685 31:0.0186891 32:0.229999 33:0.15098 34:0 35:0.343992 36:0.275029 37:0.0149519 38:0.205926 39:0.0202766 40:0 41:0.73917 42:0.0346278 43:0.904335 44:0.372341 45:0.259907 46:0.0192465 47:0.0735269 48:0.274979 49:0.00373824 50:0 51:0 52:0 53:1 54:0 55:0.00747638 56:0 57:0.0505142 58:0 59:0.92073 60:0.0287556 
0 0 1 0 1:0.0112143 2:0.181639 3:0.268278 4:0 5:0.488995 6:0.0610877 7:0.0331182 8:0.0598354 9:0.111943 10:0.475868 11:0.322168 12:0.0301852 13:0.0647187 14:0.0656775 15:0.51089 16:0.246656 17:0.117874 18:0.0589019 19:0.0124967 20:0.619884 21:0.183111 22:0 23:0.185422 24:0.011582 25:0.0261619 26:0.242158 27:0.214598 28:0 29:0.507048 30:0.036196 31:0.00373824 32:0 33:0 34:0 35:1 36:0 37:0.0851122 38:0.0337693 39:0.691623 40:0 41:0.242429 42:0.0321784 43:0.0894783 44:0 45:0.0593167 46:0.0532327 47:0.86494 48:0.022511 49:0.0221464 50:0 51:0.620452 52:0 53:0.314141 54:0.0654069 55:0.00373824 56:0 57:0.163237 58:0 59:0.743839 60:0.0929241 
0 0 1 0 1:0 2:0 3:0 4:0 5:0 6:0 7:0 8:0 9:0 10:0 11:0 12:0 13:0 14:0 15:0 16:0 17:0 18:0 19:0 20:0 21:0 22:0 23:0 24:0 25:0.0149519 26:0 27:0.0948719 28:0 29:0.864623 30:0.0405049 31:0.0092026 32:0 33:0.0653025 34:0.488372 35:0.39676 36:0.0495653 37:0.00747638 38:0 39:0.200522 40:0 41:0.730989 42:0.0684891 43:0.00747638 44:0 45:0 46:0 47:1 48:0 49:0.119057 50:0 51:0 52:0 53:0.996111 54:0.00388873 55:0.0741075 56:0 57:0.924384 58:0 59:0.0465439 60:0.0290725 
1 0 0 0 1:0.42913 2:0.113236 3:0.136105 4:0.00172521 5:0.318861 6:0.430073 7:0.104291 8:0 9:0.00737069 10:0.0165368 11:0.940428 12:0.0356645 13:0.0597409 14:0 15:0 16:0 17:1 18:0 19:0.00373824 20:0 21:0.0739146 22:0 23:0.673627 24:0.252459 25:0.140697 26:0.945419 27:0 28:0 29:0.0499055 30:0.00467584 31:0.197335 32:0.948718 33:0.00583849 34:0 35:0.0354731 36:0.00997082 37:0.00373824 38:0 39:0 40:0 41:1 42:0 43:0.00416576 44:0.397544 45:0.156577 46:0 47:0.356745 48:0.0891329 49:0.0149519 50:0 51:0.0890046 52:0.0998446 53:0.811151 54:0 55:0.0597409 56:0.0623807 57:0 58:0 59:0.89566 60:0.0419589 
0 0 0.4147939036768117 0 1:0.0783426 2:0 3:0.0254602 4:0 5:0.97454 6:0 7:0.00373824 8:0 9:0 10:0 11:1 12:0 13:0.904335 14:0.372341 15:0.259907 16:0.0192465 17:0.0735269 18:0.274979 19:0.00373824 20:0 21:0 22:0 23:1 24:0 25:0.0124967 26:0.590672 27:0.232643 28:0 29:0.176684 30:0 31:0.122741 32:0.0278283 33:0.021921 34:0.0122954 35:0.824087 36:0.113868 37:0.00747638 38:0 39:0.0953174 40:0 41:0.579122 42:0.325561 43:0.262838 44:0.0189811 45:0.0784974 46:0.00419323 47:0.613194 48:0.285134 49:0.124737 50:0.226946 51:0.142458 52:0 53:0.203655 54:0.426942 55:0.0516374 56:0.114344 57:0.709311 58:0 59:0.153913 60:0.0224322 
1 0 0 0 1:0 2:0 3:0 4:0 5:0 6:0 7:0 8:0 9:0 10:0 11:0 12:0 13:0 14:0 15:0 16:0 17:0 18:0 19:0.0112143 20:0 21:0 22:0 23:1 24:0 25:0.0149519 26:0 27:0 28:0 29:1 30:0 31:0.300688 32:0.108737 33:0.162133 34:0 35:0.578498 36:0.150633 37:0.00833137 38:0.634849 39:0.0625107 40:0 41:0.284848 42:0.0177923 43:0.152925 44:0.450674 45:0.0791569 46:0.0269084 47:0.273259 48:0.170002 49:0.141106 50:0.114525 51:0.144718 52:0 53:0.650886 54:0.0898711 55:0.0298972 56:0.317232 57:0.0156182 58:0 59:0.569351 60:0.0977986 
0.09380026231850486 0 0 0 1:0.063465 2:0.335478 3:0.141141 4:0 5:0.465258 6:0.0581224 7:0.334297 8:0.0219926 9:0.0729056 10:0.226731 11:0.611803 12:0.0665677 13:0.0149519 14:0 15:0.156976 16:0 17:0.817493 18:0.0255313 19:0.0112143 20:0.231277 21:0.0683182 22:0 23:0.622624 24:0.0777813 25:0.245354 26:0.228922 27:0.267445 28:0.0328037 29:0.371992 30:0.0988378 31:0.161051 32:0.509614 33:0.0308796 34:0.0461873 35:0.375232 36:0.0380867 37:0.533041 38:0.0879259 39:0.0369393 40:0 41:0.836364 42:0.0387704 43:0.0112143 44:0 45:0.0352951 46:0 47:0.482497 48:0.482208 49:0.11168 50:0 51:0 52:0 53:1 54:0 55:0.0124967 56:0.424502 57:0.0835976 58:0 59:0.253958 60:0.237943 
0 0 1 0 1:0.533041 2:0.0879259 3:0.0369393 4:0 5:0.836364 6:0.0387704 7:0.0112143 8:0.393354 9:0 10:0 11:0.529477 12:0.0771692 13:0.0560152 14:0.0492344 15:0.164828 16:0.0652598 17:0.662724 18:0.0579536 19:0.0112143 20:0 21:0.0590061 22:0 23:0.806635 24:0.134359 25:0.486018 26:0.128429 27:0.153623 28:0.0462358 29:0.606123 30:0.0655885 31:0.0112143 32:0 33:0.0339221 34:0 35:0.927457 36:0.0386209 37:0.0457916 38:0.455494 39:0.154938 40:0.0365912 41:0.297272 42:0.055705 43:0.11168 44:0.186957 45:0.284723 46:0.049562 47:0.33554 48:0.143218 49:0.904335 50:0.372341 51:0.259907 52:0.0192465 53:0.0735269 54:0.274979 55:0.0170439 56:0.0778296 57:0.222242 58:0.171938 59:0.209527 60:0.318464 
1 1 0 1 1:0 2:0 3:0 4:0 5:0 6:0 7:0 8:0 9:0 10:0 11:0 12:0 13:0 14:0 15:0 16:0 17:0 18:0 19:0 20:0 21:0 22:0 23:0 24:0 25:0 26:0 27:0 28:0 29:0 30:0 31:0.00373824 32:0 33:0 34:0 35:0.888948 36:0.111052 37:0.0112143 38:0 39:0.0332795 40:0 41:0.909887 42:0.0568338 43:0.225191 44:0.324264 45:0.193895 46:0.00520981 47:0.16401 48:0.312622 49:0.00747638 50:0 51:0.0505142 52:0 53:0.92073 54:0.0287556 55:0.0166616 56:0.558997 57:0.0412814 58:0 59:0.376222 60:0.0234998 
0 1 0 0 1:0.0560152 2:0.290947 3:0.0763953 4:0 5:0.435147 6:0.197511 7:0.00373824 8:0 9:0 10:0 11:0.94121 12:0.0587903 13:0.00373824 14:0 15:0.171191 16:0 17:0.780083 18:0.048726 19:0.0166616 20:0.415715 21:0.0307002 22:0 23:0.279789 24:0.273796 25:0.188374 26:0.108849 27:0.0495702 28:0 29:0.622699 30:0.218882 31:0.0139454 32:0 33:0.688602 34:0 35:0.184577 36:0.126821 37:0.0671873 38:0.0479605 39:0.155841 40:0 41:0.774692 42:0.0215063 43:0.451015 44:0.0429207 45:0.0549407 46:0.00812729 47:0.715295 48:0.178717 49:0.635978 50:0.0205589 51:0.041499 52:0.00454178 53:0.927062 54:0.00633804 55:0.0685417 56:0.125817 57:0.369182 58:0 59:0.090324 60:0.414677 
0 0 1 0 1:0.0186891 2:0 3:0.0696008 4:0.0780776 5:0.792891 6:0.0594311 7:0.0746262 8:0.0683819 9:0.38604 10:0.100711 11:0.409094 12:0.0357742 13:0.184766 14:0 15:0 16:0 17:1 18:0 19:0.462034 20:0.452325 21:0.130646 22:0.0133234 23:0.263838 24:0.139868 25:0.00747638 26:0.322188 27:0.0634487 28:0 29:0.578245 30:0.0361187 31:0.0842977 32:0.0260869 33:0.529143 34:0 35:0.421374 36:0.0233956 37:0.0112143 38:0 39:0 40:0 41:1 42:0 43:0.379188 44:0 45:0.972669 46:0 47:0.0273314 48:0 49:0.141106 50:0.191702 51:0.191906 52:0 53:0.544756 54:0.0716355 55:0.0597409 56:0.0814824 57:0.216626 58:0.0120005 59:0.389974 60:0.299917 
1 0 0 0 1:0 2:0 3:0 4:0 5:0 6:0 7:0 8:0 9:0 10:0 11:0 12:0 13:0 14:0 15:0 16:0 17:0 18:0 19:0 20:0 21:0 22:0 23:0 24:0 25:0.0560152 26:0.44688 27:0.0040002 28:0 29:0.546843 30:0.00227715 31:0.0373652 32:0 33:0.0383962 34:0.0430725 35:0.874817 36:0.0437146 37:0.0186891 38:0.249 39:0.15528 40:0 41:0.372409 42:0.223312 43:0.00747638 44:0.33124 45:0 46:0 47:0.594493 48:0.074267 49:0.169155 50:0.266729 51:0.216514 52:0.0804823 53:0.251031 54:0.185243 55:0.395822 56:0.00926549 57:0.00273699 58:0.0245627 59:0.931235 60:0.0321998 
1 1 0.7278444239385976 0.356289686511558 1:0 2:0 3:0 4:0 5:0 6:0 7:0 8:0 9:0 10:0 11:0 12:0 13:0 14:0 15:0 16:0 17:0 18:0 19:0 20:0 21:0 22:0 23:0 24:0 25:0.0112143 26:0.403328 27:0.0198569 28:0 29:0.542904 30:0.0339111 31:0.0291522 32:0.572005 33:0.0080461 34:0.108313 35:0.293315 36:0.0183212 37:0.169155 38:0.266729 39:0.216514 40:0.0804823 41:0.251031 42:0.185243 43:0.395822 44:0.00926549 45:0.00273699 46:0.0245627 47:0.931235 48:0.0321998 49:0.00747638 50:0 51:0.247693 52:0 53:0.501638 54:0.250669 55:0.00747638 56:0 57:0.0520097 58:0 59:0.94799 60:0 
1 0 1 0 1:0.571978 2:0.129501 3:0.113818 4:0.00211917 5:0.748916 6:0.00564576 7:0.548905 8:0 9:0.0059252 10:0.00295415 11:0.989996 12:0.00112432 13:0.00747638 14:0 15:0.467481 16:0 17:0.473381 18:0.0591372 19:0.00747638 20:0 21:0.0354591 22:0.318222 23:0.646319 24:0 25:0.0149519 26:0.297761 27:0.273645 28:0 29:0.35627 30:0.072324 31:0.0159959 32:0.235984 33:0.453108 34:0 35:0.105883 36:0.205025 37:0.225191 38:0.324264 39:0.193895 40:0.00520981 41:0.16401 42:0.312622 43:0.0166616 44:0.597718 45:0 46:0 47:0.402282 48:0 49:0.130098 50:0 51:0 52:0.0138723 53:0.986128 54:0 55:0.0166616 56:0.558997 57:0.0412814 58:0 59:0.376222 60:0.0234998 
1 1 1 1 1:0 2:0 3:0 4:0 5:0 6:0 7:0 8:0 9:0 10:0 11:0 12:0 13:0 14:0 15:0 16:0 17:0 18:0 19:0 20:0 21:0 22:0 23:0 24:0 25:0 26:0 27:0 28:0 29:0 30:0 31:0 32:0 33:0 34:0 35:0 36:0 37:0.0112143 38:0 39:0 40:0 41:1 42:0 43:0.107889 44:0.646062 45:0.110102 46:0 47:0.156089 48:0.0877473 49:0.00747638 50:0 51:0.300321 52:0 53:0.497636 54:0.202043 55:0.00373824 56:0 57:0 58:0 59:1 60:0 
1 1 1 1 1:0 2:0 3:0 4:0 5:0 6:0 7:0 8:0 9:0 10:0 11:0 12:0 13:0 14:0 15:0 16:0 17:0 18:0 19:0 20:0 21:0 22:0 23:0 24:0 25:0 26:0 27:0 28:0 29:0 30:0 31:0 32:0 33:0 34:0 35:0 36:0 37:0 38:0 39:0 40:0 41:0 42:0 43:0.00747638 44:0 45:0 46:0 47:1 48:0 49:0.241838 50:0.0936545 51:0.0303 52:0.0236454 53:0.792405 54:0.0599947 55:0.0112143 56:0.241899 57:0 58:0.106879 59:0.651222 60:0 
0 0 1 0 1:0.0485592 2:0.175606 3:0.0907782 4:0 5:0.512147 6:0.221469 7:0.15208 8:0.0661458 9:0.0651307 10:0.038967 11:0.811218 12:0.0185381 13:0.462034 14:0.452325 15:0.130646 16:0.0133234 17:0.263838 18:0.139868 19:0.0746262 20:0.0683819 21:0.38604 22:0.100711 23:0.409094 24:0.0357742 25:0.462034 26:0.452325 27:0.130646 28:0.0133234 29:0.263838 30:0.139868 31:0.0904035 32:0.0255874 33:0.556804 34:0 35:0.413306 36:0.00430269 37:0.00373824 38:0 39:0 40:0 41:1 42:0 43:0.173912 44:0 45:0.00229904 46:0.0103162 47:0.984767 48:0.00261749 49:0.486018 50:0.128429 51:0.153623 52:0.0462358 53:0.606123 54:0.0655885 55:0.0151757 56:0 57:0.66996 58:0 59:0.33004 60:0 
0 1 0 1 1:0 2:0 3:0 4:0 5:0 6:0 7:0 8:0 9:0 10:0 11:0 12:0 13:0 14:0 15:0 16:0 17:0 18:0 19:0 20:0 21:0 22:0 23:0 24:0 25:0 26:0 27:0 28:0 29:0 30:0 31:0.0224258 32:0 33:0 34:0 35:0.827672 36:0.172328 37:0.0112143 38:0 39:0 40:0 41:0.960023 42:0.039977 43:0.15208 44:0.190306 45:0.112431 46:0 47:0.583482 48:0.113782 49:0.0165636 50:0.140647 51:0.110791 52:0.55928 53:0.126213 54:0.0630687 55:0.0298972 56:0.174 57:0.0513991 58:0.0768788 59:0.624573 60:0.0731483 
0 0 0 1 1:0.00373824 2:0 3:0 4:0 5:1 6:0 7:0.0149519 8:0.45143 9:0 10:0 11:0.540135 12:0.00843455 13:0.00373824 14:0 15:0 16:0 17:1 18:0 19:0.317592 20:0 21:0.0121293 22:0.0054426 23:0.972762 24:0.00966655 25:0.152925 26:0.450674 27:0.0791569 28:0.0269084 29:0.273259 30:0.170002 31:0.0224258 32:0 33:0.0314898 34:0 35:0.860955 36:0.107555 37:0.0074719 38:0 39:0 40:0 41:0.333467 42:0.666533 43:0.00552166 44:0 45:0.0424177 46:0.571005 47:0.386577 48:0 49:0.00373824 50:0 51:0.396994 52:0 53:0.603006 54:0 55:0.0514904 56:0 57:0.0113242 58:0.711389 59:0.154806 60:0.122481 
1 1 1 0 1:0.462034 2:0.452325 3:0.130646 4:0.0133234 5:0.263838 6:0.139868 7:0.0112143 8:0.135727 9:0.12028 10:0.119937 11:0.365393 12:0.258665 13:0.141106 14:0 15:0 16:0 17:1 18:0 19:0.195575 20:0.0385283 21:0.00758742 22:0.0085115 23:0.916218 24:0.0291546 25:0.276703 26:0.0143201 27:0.0042301 28:0 29:0.976634 30:0.00481603 31:0.462034 32:0.452325 33:0.130646 34:0.0133234 35:0.263838 36:0.139868 37:0.147807 38:0.0852619 39:0.761878 40:0.00941783 41:0.114768 42:0.0286747 43:0.00416576 44:0.268614 45:0.264492 46:0 47:0.241047 48:0.225846 49:0.904335 50:0.372341 51:0.259907 52:0.0192465 53:0.0735269 54:0.274979 55:0.0149519 56:0.13908 57:0.0273892 58:0.0614501 59:0.499228 60:0.272852 
0 0.6669419814390689 0 0 1:0 2:0 3:0 4:0 5:0 6:0 7:0 8:0 9:0 10:0 11:0 12:0 13:0 14:0 15:0 16:0 17:0 18:0 19:0.0217122 20:0.155534 21:0.229721 22:0 23:0.209358 24:0.405388 25:0.126421 26:0 27:0 28:0.0876523 29:0.864691 30:0.0476566 31:0.00373824 32:0 33:0 34:0 35:1 36:0 37:0.0112143 38:0.193625 39:0.0571962 40:0 41:0.521263 42:0.227916 43:0.195575 44:0 45:0 46:0 47:1 48:0 49:0.133771 50:0.0806903 51:0.303904 52:0.031195 53:0.325842 54:0.258369 55:0.0124967 56:0.478565 57:0.109952 58:0 59:0.286301 60:0.125182 
1 1 1 1 1:0 2:0 3:0 4:0 5:0 6:0 7:0 8:0 9:0 10:0 11:0 12:0 13:0 14:0 15:0 16:0 17:0 18:0 19:0 20:0 21:0 22:0 23:0 24:0 25:0 26:0 27:0 28:0 29:0 30:0 31:0 32:0 33:0 34:0 35:0 36:0 37:0 38:0 39:0 40:0 41:0 42:0 43:0.0112143 44:0 45:0 46:0 47:1 48:0 49:0.317709 50:0.863199 51:0.00215178 52:0.00965539 53:0.0882468 54:0.0367475 55:0.0746262 56:0 57:0 58:0.0237371 59:0.964217 60:0.0120455 
1 1 1 0 1:0.293872 2:0.0132716 3:0 4:0.0175914 5:0.964674 6:0.0044634 7:0.456951 8:0.184523 9:0.177149 10:0.027176 11:0.455362 12:0.15579 13:0.0102543 14:0 15:0.570894 16:0 17:0.208116 18:0.22099 19:0.456951 20:0.184523 21:0.177149 22:0.027176 23:0.455362 24:0.15579 25:0.0496948 26:0.286142 27:0.178442 28:0.0702369 29:0.085592 30:0.379587 31:0.0224258 32:0 33:0 34:0 35:1 36:0 37:0.0374745 38:0.578737 39:0.0823125 40:0 41:0.230819 42:0.108132 43:0.0485592 44:0.175606 45:0.0907782 46:0 47:0.512147 48:0.221469 49:0.0541023 50:0.281091 51:0.251229 52:0.0191069 53:0.23284 54:0.215733 55:0.0224258 56:0 57:0 58:0 59:0.960023 60:0.039977 
0 1 0 0 1:0.0671873 2:0.0957898 3:0.00471599 4:0.0211614 5:0.773633 6:0.1047 7:0.063465 8:0.0666493 9:0.127972 10:0 11:0.508379 12:0.296999 13:0.0894783 14:0 15:0.15675 16:0.0946838 17:0.659334 18:0.0892314 19:0.016406 20:0.0795304 21:0.31324 22:0.245973 23:0.285474 24:0.0757835 25:0.166653 26:0.130885 27:0.300712 28:0.0289145 29:0.440447 30:0.0990413 31:0.0317455 32:0.205546 33:0.0877031 34:0 35:0.184451 36:0.522299 37:0.314227 38:0.128353 39:0.222629 40:0.0436232 41:0.385411 42:0.219984 43:0.541021 44:0.0253059 45:0.0488384 46:0.0178895 47:0.735766 48:0.1722 49:0.0112143 50:0 51:0.172403 52:0 53:0.673375 54:0.154223 55:0.0112143 56:0 57:0 58:0 59:1 60:0 
0 0 0 0.5002673343640621 1:0 2:0 3:0 4:0 5:0 6:0 7:0 8:0 9:0 10:0 11:0 12:0 13:0 14:0 15:0 16:0 17:0 18:0 19:0 20:0 21:0 22:0 23:0 24:0 25:0 26:0 27:0 28:0 29:0 30:0 31:0.0894783 32:0 33:0 34:0 35:1 36:0 37:0.0671873 38:0 39:0 40:0 41:1 42:0 43:0.00747638 44:0 45:0.0826038 46:0 47:0.752816 48:0.16458 49:0.0165636 50:0 51:0.0154489 52:0.623896 53:0.140795 54:0.21986 55:0.206337 56:0 57:0 58:0 59:1 60:0 
0 0 1 0 1:0.00373824 2:0 3:0.0988769 4:0 5:0.901123 6:0 7:0.0151757 8:0.293193 9:0.356055 10:0 11:0.263103 12:0.0876485 13:0.28553 14:0.0134189 15:0.946046 16:0.00592886 17:0.0120417 18:0.0225647 19:0.0112143 20:0 21:0.141347 22:0 23:0.644087 24:0.214567 25:0.00373824 26:0 27:0 28:0 29:1 30:0 31:0.0560152 32:0.0950007 33:0.173054 34:0.0419743 35:0.639383 36:0.0505875 37:0.00373824 38:0 39:0 40:0 41:1 42:0 43:0.0249895 44:0.742902 45:0.0365751 46:0.109412 47:0.11111 48:0 49:0.141106 50:0.114525 51:0.144718 52:0 53:0.650886 54:0.0898711 55:0.00747638 56:0 57:0.384361 58:0 59:0.437863 60:0.177775 
1 1 1 1 1:0 2:0 3:0 4:0 5:0 6:0 7:0 8:0 9:0 10:0 11:0 12:0 13:0 14:0 15:0 16:0 17:0 18:0 19:0 20:0 21:0 22:0 23:0 24:0 25:0.0533259 26:0 27:0.141722 28:0.709307 29:0.0496768 30:0.099294 31:0.102188 32:0.0357505 33:0.880047 34:0 35:0.0641631 36:0.0200389 37:0.0112143 38:0.421215 39:0 40:0 41:0.56698 42:0.011805 43:0.0331182 44:0.0598354 45:0.111943 46:0.475868 47:0.322168 48:0.0301852 49:0.293872 50:0.0132716 51:0 52:0.0175914 53:0.964674 54:0.0044634 55:0.456951 56:0.184523 57:0.177149 58:0.027176 59:0.455362 60:0.15579 
